digraph Tree {
node [shape=box, fontname="helvetica"] ;
edge [fontname="helvetica"] ;
0 [label="Contract <= 1.5\ngini = 0.394\nsamples = 5634\nvalue = [4113, 1521]\nclass = No"] ;
1 [label="MonthlyCharges <= 69.175\ngini = 0.492\nsamples = 3110\nvalue = [1754, 1356]\nclass = No"] ;
0 -> 1 [labeldistance=2.5, labelangle=45, headlabel="True"] ;
2 [label="TotalCharges <= 226.5\ngini = 0.421\nsamples = 1331\nvalue = [930, 401]\nclass = No"] ;
1 -> 2 ;
3 [label="StreamingTV <= -0.5\ngini = 0.482\nsamples = 629\nvalue = [374, 255]\nclass = No"] ;
2 -> 3 ;
4 [label="TotalCharges <= 24.525\ngini = 0.372\nsamples = 279\nvalue = [210, 69]\nclass = No"] ;
3 -> 4 ;
5 [label="PaymentMethod_Credit card (automatic) <= 0.5\ngini = 0.482\nsamples = 121\nvalue = [72, 49]\nclass = No"] ;
4 -> 5 ;
6 [label="MonthlyCharges <= 19.575\ngini = 0.491\nsamples = 113\nvalue = [64, 49]\nclass = No"] ;
5 -> 6 ;
7 [label="TotalCharges <= 19.475\ngini = 0.422\nsamples = 33\nvalue = [23, 10]\nclass = No"] ;
6 -> 7 ;
8 [label="TotalCharges <= 19.275\ngini = 0.461\nsamples = 25\nvalue = [16, 9]\nclass = No"] ;
7 -> 8 ;
9 [label="PaperlessBilling <= 0.5\ngini = 0.337\nsamples = 14\nvalue = [11, 3]\nclass = No"] ;
8 -> 9 ;
10 [label="MonthlyCharges <= 19.225\ngini = 0.198\nsamples = 9\nvalue = [8, 1]\nclass = No"] ;
9 -> 10 ;
11 [label="gini = 0.0\nsamples = 7\nvalue = [7, 0]\nclass = No"] ;
10 -> 11 ;
12 [label="PaymentMethod_Electronic check <= 0.5\ngini = 0.5\nsamples = 2\nvalue = [1, 1]\nclass = No"] ;
10 -> 12 ;
13 [label="gini = 0.0\nsamples = 1\nvalue = [0, 1]\nclass = Yes"] ;
12 -> 13 ;
14 [label="gini = 0.0\nsamples = 1\nvalue = [1, 0]\nclass = No"] ;
12 -> 14 ;
15 [label="TotalCharges <= 19.15\ngini = 0.48\nsamples = 5\nvalue = [3, 2]\nclass = No"] ;
9 -> 15 ;
16 [label="TotalCharges <= 18.925\ngini = 0.444\nsamples = 3\nvalue = [1, 2]\nclass = Yes"] ;
15 -> 16 ;
17 [label="gini = 0.0\nsamples = 1\nvalue = [0, 1]\nclass = Yes"] ;
16 -> 17 ;
18 [label="MonthlyCharges <= 19.05\ngini = 0.5\nsamples = 2\nvalue = [1, 1]\nclass = No"] ;
16 -> 18 ;
19 [label="gini = 0.0\nsamples = 1\nvalue = [1, 0]\nclass = No"] ;
18 -> 19 ;
20 [label="gini = 0.0\nsamples = 1\nvalue = [0, 1]\nclass = Yes"] ;
18 -> 20 ;
21 [label="gini = 0.0\nsamples = 2\nvalue = [2, 0]\nclass = No"] ;
15 -> 21 ;
22 [label="PaymentMethod_Mailed check <= 0.5\ngini = 0.496\nsamples = 11\nvalue = [5, 6]\nclass = Yes"] ;
8 -> 22 ;
23 [label="MonthlyCharges <= 19.375\ngini = 0.444\nsamples = 3\nvalue = [1, 2]\nclass = Yes"] ;
22 -> 23 ;
24 [label="gini = 0.0\nsamples = 1\nvalue = [0, 1]\nclass = Yes"] ;
23 -> 24 ;
25 [label="PaperlessBilling <= 0.5\ngini = 0.5\nsamples = 2\nvalue = [1, 1]\nclass = No"] ;
23 -> 25 ;
26 [label="gini = 0.0\nsamples = 1\nvalue = [1, 0]\nclass = No"] ;
25 -> 26 ;
27 [label="gini = 0.0\nsamples = 1\nvalue = [0, 1]\nclass = Yes"] ;
25 -> 27 ;
28 [label="MonthlyCharges <= 19.425\ngini = 0.5\nsamples = 8\nvalue = [4, 4]\nclass = No"] ;
22 -> 28 ;
29 [label="PaperlessBilling <= 0.5\ngini = 0.48\nsamples = 5\nvalue = [3, 2]\nclass = No"] ;
28 -> 29 ;
30 [label="gini = 0.0\nsamples = 1\nvalue = [0, 1]\nclass = Yes"] ;
29 -> 30 ;
31 [label="MonthlyCharges <= 19.35\ngini = 0.375\nsamples = 4\nvalue = [3, 1]\nclass = No"] ;
29 -> 31 ;
32 [label="gini = 0.5\nsamples = 2\nvalue = [1, 1]\nclass = No"] ;
31 -> 32 ;
33 [label="gini = 0.0\nsamples = 2\nvalue = [2, 0]\nclass = No"] ;
31 -> 33 ;
34 [label="PaperlessBilling <= 0.5\ngini = 0.444\nsamples = 3\nvalue = [1, 2]\nclass = Yes"] ;
28 -> 34 ;
35 [label="gini = 0.5\nsamples = 2\nvalue = [1, 1]\nclass = No"] ;
34 -> 35 ;
36 [label="gini = 0.0\nsamples = 1\nvalue = [0, 1]\nclass = Yes"] ;
34 -> 36 ;
37 [label="TotalCharges <= 19.525\ngini = 0.219\nsamples = 8\nvalue = [7, 1]\nclass = No"] ;
7 -> 37 ;
38 [label="gini = 0.0\nsamples = 3\nvalue = [3, 0]\nclass = No"] ;
37 -> 38 ;
39 [label="PaperlessBilling <= 0.5\ngini = 0.32\nsamples = 5\nvalue = [4, 1]\nclass = No"] ;
37 -> 39 ;
40 [label="gini = 0.375\nsamples = 4\nvalue = [3, 1]\nclass = No"] ;
39 -> 40 ;
41 [label="gini = 0.0\nsamples = 1\nvalue = [1, 0]\nclass = No"] ;
39 -> 41 ;
42 [label="PaperlessBilling <= 0.5\ngini = 0.5\nsamples = 80\nvalue = [41, 39]\nclass = No"] ;
6 -> 42 ;
43 [label="MonthlyCharges <= 20.925\ngini = 0.49\nsamples = 56\nvalue = [32, 24]\nclass = No"] ;
42 -> 43 ;
44 [label="PaymentMethod_Electronic check <= 0.5\ngini = 0.494\nsamples = 54\nvalue = [30, 24]\nclass = No"] ;
43 -> 44 ;
45 [label="MonthlyCharges <= 19.825\ngini = 0.498\nsamples = 49\nvalue = [26, 23]\nclass = No"] ;
44 -> 45 ;
46 [label="PaymentMethod_Mailed check <= 0.5\ngini = 0.444\nsamples = 9\nvalue = [3, 6]\nclass = Yes"] ;
45 -> 46 ;
47 [label="gini = 0.0\nsamples = 1\nvalue = [1, 0]\nclass = No"] ;
46 -> 47 ;
48 [label="MonthlyCharges <= 19.725\ngini = 0.375\nsamples = 8\nvalue = [2, 6]\nclass = Yes"] ;
46 -> 48 ;
49 [label="TotalCharges <= 19.675\ngini = 0.48\nsamples = 5\nvalue = [2, 3]\nclass = Yes"] ;
48 -> 49 ;
50 [label="gini = 0.444\nsamples = 3\nvalue = [1, 2]\nclass = Yes"] ;
49 -> 50 ;
51 [label="gini = 0.5\nsamples = 2\nvalue = [1, 1]\nclass = No"] ;
49 -> 51 ;
52 [label="gini = 0.0\nsamples = 3\nvalue = [0, 3]\nclass = Yes"] ;
48 -> 52 ;
53 [label="TotalCharges <= 20.475\ngini = 0.489\nsamples = 40\nvalue = [23, 17]\nclass = No"] ;
45 -> 53 ;
54 [label="TotalCharges <= 20.275\ngini = 0.464\nsamples = 30\nvalue = [19, 11]\nclass = No"] ;
53 -> 54 ;
55 [label="TotalCharges <= 19.875\ngini = 0.496\nsamples = 22\nvalue = [12, 10]\nclass = No"] ;
54 -> 55 ;
56 [label="gini = 0.0\nsamples = 2\nvalue = [2, 0]\nclass = No"] ;
55 -> 56 ;
57 [label="PaymentMethod_Bank transfer (automatic) <= 0.5\ngini = 0.5\nsamples = 20\nvalue = [10, 10]\nclass = No"] ;
55 -> 57 ;
58 [label="MonthlyCharges <= 19.925\ngini = 0.498\nsamples = 17\nvalue = [9, 8]\nclass = No"] ;
57 -> 58 ;
59 [label="gini = 0.444\nsamples = 3\nvalue = [1, 2]\nclass = Yes"] ;
58 -> 59 ;
60 [label="TotalCharges <= 20.025\ngini = 0.49\nsamples = 14\nvalue = [8, 6]\nclass = No"] ;
58 -> 60 ;
61 [label="gini = 0.0\nsamples = 2\nvalue = [2, 0]\nclass = No"] ;
60 -> 61 ;
62 [label="TotalCharges <= 20.075\ngini = 0.5\nsamples = 12\nvalue = [6, 6]\nclass = No"] ;
60 -> 62 ;
63 [label="gini = 0.444\nsamples = 3\nvalue = [2, 1]\nclass = No"] ;
62 -> 63 ;
64 [label="TotalCharges <= 20.175\ngini = 0.494\nsamples = 9\nvalue = [4, 5]\nclass = Yes"] ;
62 -> 64 ;
65 [label="TotalCharges <= 20.125\ngini = 0.375\nsamples = 4\nvalue = [1, 3]\nclass = Yes"] ;
64 -> 65 ;
66 [label="gini = 0.0\nsamples = 1\nvalue = [0, 1]\nclass = Yes"] ;
65 -> 66 ;
67 [label="gini = 0.444\nsamples = 3\nvalue = [1, 2]\nclass = Yes"] ;
65 -> 67 ;
68 [label="MonthlyCharges <= 20.225\ngini = 0.48\nsamples = 5\nvalue = [3, 2]\nclass = No"] ;
64 -> 68 ;
69 [label="gini = 0.444\nsamples = 3\nvalue = [2, 1]\nclass = No"] ;
68 -> 69 ;
70 [label="gini = 0.5\nsamples = 2\nvalue = [1, 1]\nclass = No"] ;
68 -> 70 ;
71 [label="MonthlyCharges <= 19.925\ngini = 0.444\nsamples = 3\nvalue = [1, 2]\nclass = Yes"] ;
57 -> 71 ;
72 [label="gini = 0.0\nsamples = 1\nvalue = [1, 0]\nclass = No"] ;
71 -> 72 ;
73 [label="gini = 0.0\nsamples = 2\nvalue = [0, 2]\nclass = Yes"] ;
71 -> 73 ;
74 [label="TotalCharges <= 20.375\ngini = 0.219\nsamples = 8\nvalue = [7, 1]\nclass = No"] ;
54 -> 74 ;
75 [label="gini = 0.0\nsamples = 4\nvalue = [4, 0]\nclass = No"] ;
74 -> 75 ;
76 [label="TotalCharges <= 20.425\ngini = 0.375\nsamples = 4\nvalue = [3, 1]\nclass = No"] ;
74 -> 76 ;
77 [label="gini = 0.5\nsamples = 2\nvalue = [1, 1]\nclass = No"] ;
76 -> 77 ;
78 [label="gini = 0.0\nsamples = 2\nvalue = [2, 0]\nclass = No"] ;
76 -> 78 ;
79 [label="TotalCharges <= 20.575\ngini = 0.48\nsamples = 10\nvalue = [4, 6]\nclass = Yes"] ;
53 -> 79 ;
80 [label="MonthlyCharges <= 20.525\ngini = 0.375\nsamples = 4\nvalue = [1, 3]\nclass = Yes"] ;
79 -> 80 ;
81 [label="gini = 0.444\nsamples = 3\nvalue = [1, 2]\nclass = Yes"] ;
80 -> 81 ;
82 [label="gini = 0.0\nsamples = 1\nvalue = [0, 1]\nclass = Yes"] ;
80 -> 82 ;
83 [label="MonthlyCharges <= 20.85\ngini = 0.5\nsamples = 6\nvalue = [3, 3]\nclass = No"] ;
79 -> 83 ;
84 [label="MonthlyCharges <= 20.7\ngini = 0.444\nsamples = 3\nvalue = [2, 1]\nclass = No"] ;
83 -> 84 ;
85 [label="gini = 0.5\nsamples = 2\nvalue = [1, 1]\nclass = No"] ;
84 -> 85 ;
86 [label="gini = 0.0\nsamples = 1\nvalue = [1, 0]\nclass = No"] ;
84 -> 86 ;
87 [label="gini = 0.444\nsamples = 3\nvalue = [1, 2]\nclass = Yes"] ;
83 -> 87 ;
88 [label="MonthlyCharges <= 20.275\ngini = 0.32\nsamples = 5\nvalue = [4, 1]\nclass = No"] ;
44 -> 88 ;
89 [label="gini = 0.0\nsamples = 2\nvalue = [2, 0]\nclass = No"] ;
88 -> 89 ;
90 [label="MonthlyCharges <= 20.6\ngini = 0.444\nsamples = 3\nvalue = [2, 1]\nclass = No"] ;
88 -> 90 ;
91 [label="gini = 0.0\nsamples = 1\nvalue = [0, 1]\nclass = Yes"] ;
90 -> 91 ;
92 [label="gini = 0.0\nsamples = 2\nvalue = [2, 0]\nclass = No"] ;
90 -> 92 ;
93 [label="gini = 0.0\nsamples = 2\nvalue = [2, 0]\nclass = No"] ;
43 -> 93 ;
94 [label="MonthlyCharges <= 20.225\ngini = 0.469\nsamples = 24\nvalue = [9, 15]\nclass = Yes"] ;
42 -> 94 ;
95 [label="MonthlyCharges <= 20.0\ngini = 0.355\nsamples = 13\nvalue = [3, 10]\nclass = Yes"] ;
94 -> 95 ;
96 [label="PaymentMethod_Bank transfer (automatic) <= 0.5\ngini = 0.469\nsamples = 8\nvalue = [3, 5]\nclass = Yes"] ;
95 -> 96 ;
97 [label="PaymentMethod_Electronic check <= 0.5\ngini = 0.408\nsamples = 7\nvalue = [2, 5]\nclass = Yes"] ;
96 -> 97 ;
98 [label="TotalCharges <= 19.675\ngini = 0.48\nsamples = 5\nvalue = [2, 3]\nclass = Yes"] ;
97 -> 98 ;
99 [label="gini = 0.0\nsamples = 2\nvalue = [0, 2]\nclass = Yes"] ;
98 -> 99 ;
100 [label="TotalCharges <= 19.825\ngini = 0.444\nsamples = 3\nvalue = [2, 1]\nclass = No"] ;
98 -> 100 ;
101 [label="gini = 0.0\nsamples = 1\nvalue = [1, 0]\nclass = No"] ;
100 -> 101 ;
102 [label="gini = 0.5\nsamples = 2\nvalue = [1, 1]\nclass = No"] ;
100 -> 102 ;
103 [label="gini = 0.0\nsamples = 2\nvalue = [0, 2]\nclass = Yes"] ;
97 -> 103 ;
104 [label="gini = 0.0\nsamples = 1\nvalue = [1, 0]\nclass = No"] ;
96 -> 104 ;
105 [label="gini = 0.0\nsamples = 5\nvalue = [0, 5]\nclass = Yes"] ;
95 -> 105 ;
106 [label="MonthlyCharges <= 20.75\ngini = 0.496\nsamples = 11\nvalue = [6, 5]\nclass = No"] ;
94 -> 106 ;
107 [label="TotalCharges <= 20.475\ngini = 0.375\nsamples = 8\nvalue = [6, 2]\nclass = No"] ;
106 -> 107 ;
108 [label="MonthlyCharges <= 20.35\ngini = 0.278\nsamples = 6\nvalue = [5, 1]\nclass = No"] ;
107 -> 108 ;
109 [label="gini = 0.375\nsamples = 4\nvalue = [3, 1]\nclass = No"] ;
108 -> 109 ;
110 [label="gini = 0.0\nsamples = 2\nvalue = [2, 0]\nclass = No"] ;
108 -> 110 ;
111 [label="MonthlyCharges <= 20.575\ngini = 0.5\nsamples = 2\nvalue = [1, 1]\nclass = No"] ;
107 -> 111 ;
112 [label="gini = 0.0\nsamples = 1\nvalue = [0, 1]\nclass = Yes"] ;
111 -> 112 ;
113 [label="gini = 0.0\nsamples = 1\nvalue = [1, 0]\nclass = No"] ;
111 -> 113 ;
114 [label="gini = 0.0\nsamples = 3\nvalue = [0, 3]\nclass = Yes"] ;
106 -> 114 ;
115 [label="gini = 0.0\nsamples = 8\nvalue = [8, 0]\nclass = No"] ;
5 -> 115 ;
116 [label="TotalCharges <= 180.5\ngini = 0.221\nsamples = 158\nvalue = [138, 20]\nclass = No"] ;
4 -> 116 ;
117 [label="TotalCharges <= 179.575\ngini = 0.246\nsamples = 139\nvalue = [119, 20]\nclass = No"] ;
116 -> 117 ;
118 [label="MonthlyCharges <= 19.325\ngini = 0.237\nsamples = 138\nvalue = [119, 19]\nclass = No"] ;
117 -> 118 ;
119 [label="gini = 0.0\nsamples = 14\nvalue = [14, 0]\nclass = No"] ;
118 -> 119 ;
120 [label="PaperlessBilling <= 0.5\ngini = 0.259\nsamples = 124\nvalue = [105, 19]\nclass = No"] ;
118 -> 120 ;
121 [label="TotalCharges <= 33.45\ngini = 0.308\nsamples = 84\nvalue = [68, 16]\nclass = No"] ;
120 -> 121 ;
122 [label="TotalCharges <= 29.55\ngini = 0.5\nsamples = 4\nvalue = [2, 2]\nclass = No"] ;
121 -> 122 ;
123 [label="gini = 0.0\nsamples = 2\nvalue = [2, 0]\nclass = No"] ;
122 -> 123 ;
124 [label="gini = 0.0\nsamples = 2\nvalue = [0, 2]\nclass = Yes"] ;
122 -> 124 ;
125 [label="TotalCharges <= 63.45\ngini = 0.289\nsamples = 80\nvalue = [66, 14]\nclass = No"] ;
121 -> 125 ;
126 [label="TotalCharges <= 39.475\ngini = 0.08\nsamples = 24\nvalue = [23, 1]\nclass = No"] ;
125 -> 126 ;
127 [label="TotalCharges <= 37.75\ngini = 0.375\nsamples = 4\nvalue = [3, 1]\nclass = No"] ;
126 -> 127 ;
128 [label="gini = 0.0\nsamples = 3\nvalue = [3, 0]\nclass = No"] ;
127 -> 128 ;
129 [label="gini = 0.0\nsamples = 1\nvalue = [0, 1]\nclass = Yes"] ;
127 -> 129 ;
130 [label="gini = 0.0\nsamples = 20\nvalue = [20, 0]\nclass = No"] ;
126 -> 130 ;
131 [label="PaymentMethod_Bank transfer (automatic) <= 0.5\ngini = 0.357\nsamples = 56\nvalue = [43, 13]\nclass = No"] ;
125 -> 131 ;
132 [label="MonthlyCharges <= 19.45\ngini = 0.305\nsamples = 48\nvalue = [39, 9]\nclass = No"] ;
131 -> 132 ;
133 [label="gini = 0.0\nsamples = 1\nvalue = [0, 1]\nclass = Yes"] ;
132 -> 133 ;
134 [label="TotalCharges <= 77.9\ngini = 0.282\nsamples = 47\nvalue = [39, 8]\nclass = No"] ;
132 -> 134 ;
135 [label="MonthlyCharges <= 20.525\ngini = 0.5\nsamples = 6\nvalue = [3, 3]\nclass = No"] ;
134 -> 135 ;
136 [label="PaymentMethod_Mailed check <= 0.5\ngini = 0.375\nsamples = 4\nvalue = [1, 3]\nclass = Yes"] ;
135 -> 136 ;
137 [label="gini = 0.0\nsamples = 1\nvalue = [1, 0]\nclass = No"] ;
136 -> 137 ;
138 [label="gini = 0.0\nsamples = 3\nvalue = [0, 3]\nclass = Yes"] ;
136 -> 138 ;
139 [label="gini = 0.0\nsamples = 2\nvalue = [2, 0]\nclass = No"] ;
135 -> 139 ;
140 [label="PaymentMethod_Electronic check <= 0.5\ngini = 0.214\nsamples = 41\nvalue = [36, 5]\nclass = No"] ;
134 -> 140 ;
141 [label="TotalCharges <= 164.225\ngini = 0.18\nsamples = 40\nvalue = [36, 4]\nclass = No"] ;
140 -> 141 ;
142 [label="MonthlyCharges <= 20.9\ngini = 0.114\nsamples = 33\nvalue = [31, 2]\nclass = No"] ;
141 -> 142 ;
143 [label="PaymentMethod_Credit card (automatic) <= 0.5\ngini = 0.062\nsamples = 31\nvalue = [30, 1]\nclass = No"] ;
142 -> 143 ;
144 [label="gini = 0.0\nsamples = 23\nvalue = [23, 0]\nclass = No"] ;
143 -> 144 ;
145 [label="MonthlyCharges <= 19.95\ngini = 0.219\nsamples = 8\nvalue = [7, 1]\nclass = No"] ;
143 -> 145 ;
146 [label="TotalCharges <= 118.8\ngini = 0.444\nsamples = 3\nvalue = [2, 1]\nclass = No"] ;
145 -> 146 ;
147 [label="gini = 0.0\nsamples = 1\nvalue = [0, 1]\nclass = Yes"] ;
146 -> 147 ;
148 [label="gini = 0.0\nsamples = 2\nvalue = [2, 0]\nclass = No"] ;
146 -> 148 ;
149 [label="gini = 0.0\nsamples = 5\nvalue = [5, 0]\nclass = No"] ;
145 -> 149 ;
150 [label="TotalCharges <= 107.875\ngini = 0.5\nsamples = 2\nvalue = [1, 1]\nclass = No"] ;
142 -> 150 ;
151 [label="gini = 0.0\nsamples = 1\nvalue = [1, 0]\nclass = No"] ;
150 -> 151 ;
152 [label="gini = 0.0\nsamples = 1\nvalue = [0, 1]\nclass = Yes"] ;
150 -> 152 ;
153 [label="TotalCharges <= 167.3\ngini = 0.408\nsamples = 7\nvalue = [5, 2]\nclass = No"] ;
141 -> 153 ;
154 [label="gini = 0.0\nsamples = 1\nvalue = [0, 1]\nclass = Yes"] ;
153 -> 154 ;
155 [label="TotalCharges <= 175.75\ngini = 0.278\nsamples = 6\nvalue = [5, 1]\nclass = No"] ;
153 -> 155 ;
156 [label="gini = 0.0\nsamples = 3\nvalue = [3, 0]\nclass = No"] ;
155 -> 156 ;
157 [label="TotalCharges <= 178.6\ngini = 0.444\nsamples = 3\nvalue = [2, 1]\nclass = No"] ;
155 -> 157 ;
158 [label="gini = 0.0\nsamples = 1\nvalue = [0, 1]\nclass = Yes"] ;
157 -> 158 ;
159 [label="gini = 0.0\nsamples = 2\nvalue = [2, 0]\nclass = No"] ;
157 -> 159 ;
160 [label="gini = 0.0\nsamples = 1\nvalue = [0, 1]\nclass = Yes"] ;
140 -> 160 ;
161 [label="MonthlyCharges <= 19.75\ngini = 0.5\nsamples = 8\nvalue = [4, 4]\nclass = No"] ;
131 -> 161 ;
162 [label="TotalCharges <= 148.325\ngini = 0.375\nsamples = 4\nvalue = [3, 1]\nclass = No"] ;
161 -> 162 ;
163 [label="TotalCharges <= 126.55\ngini = 0.5\nsamples = 2\nvalue = [1, 1]\nclass = No"] ;
162 -> 163 ;
164 [label="gini = 0.0\nsamples = 1\nvalue = [1, 0]\nclass = No"] ;
163 -> 164 ;
165 [label="gini = 0.0\nsamples = 1\nvalue = [0, 1]\nclass = Yes"] ;
163 -> 165 ;
166 [label="gini = 0.0\nsamples = 2\nvalue = [2, 0]\nclass = No"] ;
162 -> 166 ;
167 [label="MonthlyCharges <= 20.4\ngini = 0.375\nsamples = 4\nvalue = [1, 3]\nclass = Yes"] ;
161 -> 167 ;
168 [label="gini = 0.0\nsamples = 2\nvalue = [0, 2]\nclass = Yes"] ;
167 -> 168 ;
169 [label="TotalCharges <= 89.525\ngini = 0.5\nsamples = 2\nvalue = [1, 1]\nclass = No"] ;
167 -> 169 ;
170 [label="gini = 0.0\nsamples = 1\nvalue = [0, 1]\nclass = Yes"] ;
169 -> 170 ;
171 [label="gini = 0.0\nsamples = 1\nvalue = [1, 0]\nclass = No"] ;
169 -> 171 ;
172 [label="TotalCharges <= 60.6\ngini = 0.139\nsamples = 40\nvalue = [37, 3]\nclass = No"] ;
120 -> 172 ;
173 [label="TotalCharges <= 48.45\ngini = 0.291\nsamples = 17\nvalue = [14, 3]\nclass = No"] ;
172 -> 173 ;
174 [label="gini = 0.0\nsamples = 11\nvalue = [11, 0]\nclass = No"] ;
173 -> 174 ;
175 [label="PaymentMethod_Electronic check <= 0.5\ngini = 0.5\nsamples = 6\nvalue = [3, 3]\nclass = No"] ;
173 -> 175 ;
176 [label="TotalCharges <= 53.2\ngini = 0.48\nsamples = 5\nvalue = [2, 3]\nclass = Yes"] ;
175 -> 176 ;
177 [label="gini = 0.0\nsamples = 1\nvalue = [0, 1]\nclass = Yes"] ;
176 -> 177 ;
178 [label="MonthlyCharges <= 19.875\ngini = 0.5\nsamples = 4\nvalue = [2, 2]\nclass = No"] ;
176 -> 178 ;
179 [label="TotalCharges <= 56.7\ngini = 0.444\nsamples = 3\nvalue = [1, 2]\nclass = Yes"] ;
178 -> 179 ;
180 [label="gini = 0.0\nsamples = 1\nvalue = [1, 0]\nclass = No"] ;
179 -> 180 ;
181 [label="gini = 0.0\nsamples = 2\nvalue = [0, 2]\nclass = Yes"] ;
179 -> 181 ;
182 [label="gini = 0.0\nsamples = 1\nvalue = [1, 0]\nclass = No"] ;
178 -> 182 ;
183 [label="gini = 0.0\nsamples = 1\nvalue = [1, 0]\nclass = No"] ;
175 -> 183 ;
184 [label="gini = 0.0\nsamples = 23\nvalue = [23, 0]\nclass = No"] ;
172 -> 184 ;
185 [label="gini = 0.0\nsamples = 1\nvalue = [0, 1]\nclass = Yes"] ;
117 -> 185 ;
186 [label="gini = 0.0\nsamples = 19\nvalue = [19, 0]\nclass = No"] ;
116 -> 186 ;
187 [label="PaperlessBilling <= 0.5\ngini = 0.498\nsamples = 350\nvalue = [164, 186]\nclass = Yes"] ;
3 -> 187 ;
188 [label="MonthlyCharges <= 45.625\ngini = 0.492\nsamples = 160\nvalue = [90, 70]\nclass = No"] ;
187 -> 188 ;
189 [label="TotalCharges <= 78.0\ngini = 0.464\nsamples = 90\nvalue = [57, 33]\nclass = No"] ;
188 -> 189 ;
190 [label="TotalCharges <= 52.25\ngini = 0.496\nsamples = 53\nvalue = [29, 24]\nclass = No"] ;
189 -> 190 ;
191 [label="StreamingTV <= 0.5\ngini = 0.478\nsamples = 48\nvalue = [29, 19]\nclass = No"] ;
190 -> 191 ;
192 [label="TechSupport <= 0.5\ngini = 0.466\nsamples = 46\nvalue = [29, 17]\nclass = No"] ;
191 -> 192 ;
193 [label="TotalCharges <= 42.825\ngini = 0.485\nsamples = 41\nvalue = [24, 17]\nclass = No"] ;
192 -> 193 ;
194 [label="TotalCharges <= 24.5\ngini = 0.495\nsamples = 20\nvalue = [9, 11]\nclass = Yes"] ;
193 -> 194 ;
195 [label="gini = 0.0\nsamples = 3\nvalue = [3, 0]\nclass = No"] ;
194 -> 195 ;
196 [label="MonthlyCharges <= 24.325\ngini = 0.457\nsamples = 17\nvalue = [6, 11]\nclass = Yes"] ;
194 -> 196 ;
197 [label="gini = 0.0\nsamples = 1\nvalue = [1, 0]\nclass = No"] ;
196 -> 197 ;
198 [label="TotalCharges <= 35.025\ngini = 0.43\nsamples = 16\nvalue = [5, 11]\nclass = Yes"] ;
196 -> 198 ;
199 [label="StreamingMovies <= 0.5\ngini = 0.473\nsamples = 13\nvalue = [5, 8]\nclass = Yes"] ;
198 -> 199 ;
200 [label="TotalCharges <= 27.525\ngini = 0.444\nsamples = 12\nvalue = [4, 8]\nclass = Yes"] ;
199 -> 200 ;
201 [label="MonthlyCharges <= 25.15\ngini = 0.494\nsamples = 9\nvalue = [4, 5]\nclass = Yes"] ;
200 -> 201 ;
202 [label="MonthlyCharges <= 24.75\ngini = 0.32\nsamples = 5\nvalue = [1, 4]\nclass = Yes"] ;
201 -> 202 ;
203 [label="TotalCharges <= 24.65\ngini = 0.5\nsamples = 2\nvalue = [1, 1]\nclass = No"] ;
202 -> 203 ;
204 [label="gini = 0.0\nsamples = 1\nvalue = [0, 1]\nclass = Yes"] ;
203 -> 204 ;
205 [label="gini = 0.0\nsamples = 1\nvalue = [1, 0]\nclass = No"] ;
203 -> 205 ;
206 [label="gini = 0.0\nsamples = 3\nvalue = [0, 3]\nclass = Yes"] ;
202 -> 206 ;
207 [label="PaymentMethod_Electronic check <= 0.5\ngini = 0.375\nsamples = 4\nvalue = [3, 1]\nclass = No"] ;
201 -> 207 ;
208 [label="gini = 0.0\nsamples = 2\nvalue = [2, 0]\nclass = No"] ;
207 -> 208 ;
209 [label="gini = 0.5\nsamples = 2\nvalue = [1, 1]\nclass = No"] ;
207 -> 209 ;
210 [label="gini = 0.0\nsamples = 3\nvalue = [0, 3]\nclass = Yes"] ;
200 -> 210 ;
211 [label="gini = 0.0\nsamples = 1\nvalue = [1, 0]\nclass = No"] ;
199 -> 211 ;
212 [label="gini = 0.0\nsamples = 3\nvalue = [0, 3]\nclass = Yes"] ;
198 -> 212 ;
213 [label="MonthlyCharges <= 44.9\ngini = 0.408\nsamples = 21\nvalue = [15, 6]\nclass = No"] ;
193 -> 213 ;
214 [label="PaymentMethod_Mailed check <= 0.5\ngini = 0.298\nsamples = 11\nvalue = [9, 2]\nclass = No"] ;
213 -> 214 ;
215 [label="gini = 0.0\nsamples = 6\nvalue = [6, 0]\nclass = No"] ;
214 -> 215 ;
216 [label="TotalCharges <= 44.425\ngini = 0.48\nsamples = 5\nvalue = [3, 2]\nclass = No"] ;
214 -> 216 ;
217 [label="gini = 0.0\nsamples = 2\nvalue = [0, 2]\nclass = Yes"] ;
216 -> 217 ;
218 [label="gini = 0.0\nsamples = 3\nvalue = [3, 0]\nclass = No"] ;
216 -> 218 ;
219 [label="TotalCharges <= 45.125\ngini = 0.48\nsamples = 10\nvalue = [6, 4]\nclass = No"] ;
213 -> 219 ;
220 [label="gini = 0.0\nsamples = 2\nvalue = [0, 2]\nclass = Yes"] ;
219 -> 220 ;
221 [label="PaymentMethod_Electronic check <= 0.5\ngini = 0.375\nsamples = 8\nvalue = [6, 2]\nclass = No"] ;
219 -> 221 ;
222 [label="gini = 0.0\nsamples = 5\nvalue = [5, 0]\nclass = No"] ;
221 -> 222 ;
223 [label="TotalCharges <= 45.25\ngini = 0.444\nsamples = 3\nvalue = [1, 2]\nclass = Yes"] ;
221 -> 223 ;
224 [label="gini = 0.0\nsamples = 1\nvalue = [1, 0]\nclass = No"] ;
223 -> 224 ;
225 [label="gini = 0.0\nsamples = 2\nvalue = [0, 2]\nclass = Yes"] ;
223 -> 225 ;
226 [label="gini = 0.0\nsamples = 5\nvalue = [5, 0]\nclass = No"] ;
192 -> 226 ;
227 [label="gini = 0.0\nsamples = 2\nvalue = [0, 2]\nclass = Yes"] ;
191 -> 227 ;
228 [label="gini = 0.0\nsamples = 5\nvalue = [0, 5]\nclass = Yes"] ;
190 -> 228 ;
229 [label="TotalCharges <= 221.95\ngini = 0.368\nsamples = 37\nvalue = [28, 9]\nclass = No"] ;
189 -> 229 ;
230 [label="MonthlyCharges <= 44.925\ngini = 0.346\nsamples = 36\nvalue = [28, 8]\nclass = No"] ;
229 -> 230 ;
231 [label="TotalCharges <= 130.0\ngini = 0.278\nsamples = 30\nvalue = [25, 5]\nclass = No"] ;
230 -> 231 ;
232 [label="TotalCharges <= 81.7\ngini = 0.111\nsamples = 17\nvalue = [16, 1]\nclass = No"] ;
231 -> 232 ;
233 [label="MonthlyCharges <= 34.725\ngini = 0.444\nsamples = 3\nvalue = [2, 1]\nclass = No"] ;
232 -> 233 ;
234 [label="gini = 0.0\nsamples = 2\nvalue = [2, 0]\nclass = No"] ;
233 -> 234 ;
235 [label="gini = 0.0\nsamples = 1\nvalue = [0, 1]\nclass = Yes"] ;
233 -> 235 ;
236 [label="gini = 0.0\nsamples = 14\nvalue = [14, 0]\nclass = No"] ;
232 -> 236 ;
237 [label="TotalCharges <= 135.125\ngini = 0.426\nsamples = 13\nvalue = [9, 4]\nclass = No"] ;
231 -> 237 ;
238 [label="gini = 0.0\nsamples = 1\nvalue = [0, 1]\nclass = Yes"] ;
237 -> 238 ;
239 [label="MonthlyCharges <= 27.425\ngini = 0.375\nsamples = 12\nvalue = [9, 3]\nclass = No"] ;
237 -> 239 ;
240 [label="gini = 0.0\nsamples = 1\nvalue = [0, 1]\nclass = Yes"] ;
239 -> 240 ;
241 [label="StreamingMovies <= 0.5\ngini = 0.298\nsamples = 11\nvalue = [9, 2]\nclass = No"] ;
239 -> 241 ;
242 [label="TotalCharges <= 142.875\ngini = 0.18\nsamples = 10\nvalue = [9, 1]\nclass = No"] ;
241 -> 242 ;
243 [label="TotalCharges <= 137.55\ngini = 0.5\nsamples = 2\nvalue = [1, 1]\nclass = No"] ;
242 -> 243 ;
244 [label="gini = 0.0\nsamples = 1\nvalue = [1, 0]\nclass = No"] ;
243 -> 244 ;
245 [label="gini = 0.0\nsamples = 1\nvalue = [0, 1]\nclass = Yes"] ;
243 -> 245 ;
246 [label="gini = 0.0\nsamples = 8\nvalue = [8, 0]\nclass = No"] ;
242 -> 246 ;
247 [label="gini = 0.0\nsamples = 1\nvalue = [0, 1]\nclass = Yes"] ;
241 -> 247 ;
248 [label="MonthlyCharges <= 45.375\ngini = 0.5\nsamples = 6\nvalue = [3, 3]\nclass = No"] ;
230 -> 248 ;
249 [label="gini = 0.0\nsamples = 3\nvalue = [0, 3]\nclass = Yes"] ;
248 -> 249 ;
250 [label="gini = 0.0\nsamples = 3\nvalue = [3, 0]\nclass = No"] ;
248 -> 250 ;
251 [label="gini = 0.0\nsamples = 1\nvalue = [0, 1]\nclass = Yes"] ;
229 -> 251 ;
252 [label="MonthlyCharges <= 46.175\ngini = 0.498\nsamples = 70\nvalue = [33, 37]\nclass = Yes"] ;
188 -> 252 ;
253 [label="gini = 0.0\nsamples = 10\nvalue = [0, 10]\nclass = Yes"] ;
252 -> 253 ;
254 [label="MonthlyCharges <= 50.0\ngini = 0.495\nsamples = 60\nvalue = [33, 27]\nclass = No"] ;
252 -> 254 ;
255 [label="TotalCharges <= 214.05\ngini = 0.26\nsamples = 13\nvalue = [11, 2]\nclass = No"] ;
254 -> 255 ;
256 [label="TotalCharges <= 47.125\ngini = 0.153\nsamples = 12\nvalue = [11, 1]\nclass = No"] ;
255 -> 256 ;
257 [label="PaymentMethod_Mailed check <= 0.5\ngini = 0.5\nsamples = 2\nvalue = [1, 1]\nclass = No"] ;
256 -> 257 ;
258 [label="gini = 0.0\nsamples = 1\nvalue = [1, 0]\nclass = No"] ;
257 -> 258 ;
259 [label="gini = 0.0\nsamples = 1\nvalue = [0, 1]\nclass = Yes"] ;
257 -> 259 ;
260 [label="gini = 0.0\nsamples = 10\nvalue = [10, 0]\nclass = No"] ;
256 -> 260 ;
261 [label="gini = 0.0\nsamples = 1\nvalue = [0, 1]\nclass = Yes"] ;
255 -> 261 ;
262 [label="MonthlyCharges <= 50.675\ngini = 0.498\nsamples = 47\nvalue = [22, 25]\nclass = Yes"] ;
254 -> 262 ;
263 [label="PaymentMethod_Bank transfer (automatic) <= 0.5\ngini = 0.245\nsamples = 7\nvalue = [1, 6]\nclass = Yes"] ;
262 -> 263 ;
264 [label="gini = 0.0\nsamples = 6\nvalue = [0, 6]\nclass = Yes"] ;
263 -> 264 ;
265 [label="gini = 0.0\nsamples = 1\nvalue = [1, 0]\nclass = No"] ;
263 -> 265 ;
266 [label="MonthlyCharges <= 56.3\ngini = 0.499\nsamples = 40\nvalue = [21, 19]\nclass = No"] ;
262 -> 266 ;
267 [label="PaymentMethod_Credit card (automatic) <= 0.5\ngini = 0.466\nsamples = 27\nvalue = [17, 10]\nclass = No"] ;
266 -> 267 ;
268 [label="StreamingTV <= 0.5\ngini = 0.413\nsamples = 24\nvalue = [17, 7]\nclass = No"] ;
267 -> 268 ;
269 [label="MonthlyCharges <= 55.45\ngini = 0.363\nsamples = 21\nvalue = [16, 5]\nclass = No"] ;
268 -> 269 ;
270 [label="MonthlyCharges <= 55.275\ngini = 0.401\nsamples = 18\nvalue = [13, 5]\nclass = No"] ;
269 -> 270 ;
271 [label="TotalCharges <= 52.775\ngini = 0.36\nsamples = 17\nvalue = [13, 4]\nclass = No"] ;
270 -> 271 ;
272 [label="DeviceProtection <= 0.5\ngini = 0.48\nsamples = 5\nvalue = [3, 2]\nclass = No"] ;
271 -> 272 ;
273 [label="TechSupport <= 0.5\ngini = 0.375\nsamples = 4\nvalue = [3, 1]\nclass = No"] ;
272 -> 273 ;
274 [label="gini = 0.0\nsamples = 3\nvalue = [3, 0]\nclass = No"] ;
273 -> 274 ;
275 [label="gini = 0.0\nsamples = 1\nvalue = [0, 1]\nclass = Yes"] ;
273 -> 275 ;
276 [label="gini = 0.0\nsamples = 1\nvalue = [0, 1]\nclass = Yes"] ;
272 -> 276 ;
277 [label="StreamingMovies <= 0.5\ngini = 0.278\nsamples = 12\nvalue = [10, 2]\nclass = No"] ;
271 -> 277 ;
278 [label="MonthlyCharges <= 54.675\ngini = 0.18\nsamples = 10\nvalue = [9, 1]\nclass = No"] ;
277 -> 278 ;
279 [label="gini = 0.0\nsamples = 7\nvalue = [7, 0]\nclass = No"] ;
278 -> 279 ;
280 [label="MonthlyCharges <= 54.95\ngini = 0.444\nsamples = 3\nvalue = [2, 1]\nclass = No"] ;
278 -> 280 ;
281 [label="gini = 0.0\nsamples = 1\nvalue = [0, 1]\nclass = Yes"] ;
280 -> 281 ;
282 [label="gini = 0.0\nsamples = 2\nvalue = [2, 0]\nclass = No"] ;
280 -> 282 ;
283 [label="PaymentMethod_Mailed check <= 0.5\ngini = 0.5\nsamples = 2\nvalue = [1, 1]\nclass = No"] ;
277 -> 283 ;
284 [label="gini = 0.0\nsamples = 1\nvalue = [0, 1]\nclass = Yes"] ;
283 -> 284 ;
285 [label="gini = 0.0\nsamples = 1\nvalue = [1, 0]\nclass = No"] ;
283 -> 285 ;
286 [label="gini = 0.0\nsamples = 1\nvalue = [0, 1]\nclass = Yes"] ;
270 -> 286 ;
287 [label="gini = 0.0\nsamples = 3\nvalue = [3, 0]\nclass = No"] ;
269 -> 287 ;
288 [label="StreamingMovies <= 0.5\ngini = 0.444\nsamples = 3\nvalue = [1, 2]\nclass = Yes"] ;
268 -> 288 ;
289 [label="gini = 0.0\nsamples = 2\nvalue = [0, 2]\nclass = Yes"] ;
288 -> 289 ;
290 [label="gini = 0.0\nsamples = 1\nvalue = [1, 0]\nclass = No"] ;
288 -> 290 ;
291 [label="gini = 0.0\nsamples = 3\nvalue = [0, 3]\nclass = Yes"] ;
267 -> 291 ;
292 [label="TotalCharges <= 134.475\ngini = 0.426\nsamples = 13\nvalue = [4, 9]\nclass = Yes"] ;
266 -> 292 ;
293 [label="gini = 0.0\nsamples = 9\nvalue = [0, 9]\nclass = Yes"] ;
292 -> 293 ;
294 [label="gini = 0.0\nsamples = 4\nvalue = [4, 0]\nclass = No"] ;
292 -> 294 ;
295 [label="PaymentMethod_Electronic check <= 0.5\ngini = 0.476\nsamples = 190\nvalue = [74, 116]\nclass = Yes"] ;
187 -> 295 ;
296 [label="MonthlyCharges <= 56.35\ngini = 0.497\nsamples = 93\nvalue = [43, 50]\nclass = Yes"] ;
295 -> 296 ;
297 [label="OnlineBackup <= 0.5\ngini = 0.481\nsamples = 82\nvalue = [33, 49]\nclass = Yes"] ;
296 -> 297 ;
298 [label="StreamingMovies <= 0.5\ngini = 0.497\nsamples = 67\nvalue = [31, 36]\nclass = Yes"] ;
297 -> 298 ;
299 [label="MonthlyCharges <= 24.675\ngini = 0.5\nsamples = 63\nvalue = [31, 32]\nclass = Yes"] ;
298 -> 299 ;
300 [label="gini = 0.0\nsamples = 4\nvalue = [0, 4]\nclass = Yes"] ;
299 -> 300 ;
301 [label="DeviceProtection <= 0.5\ngini = 0.499\nsamples = 59\nvalue = [31, 28]\nclass = No"] ;
299 -> 301 ;
302 [label="StreamingTV <= 0.5\ngini = 0.491\nsamples = 53\nvalue = [30, 23]\nclass = No"] ;
301 -> 302 ;
303 [label="MonthlyCharges <= 50.05\ngini = 0.476\nsamples = 46\nvalue = [28, 18]\nclass = No"] ;
302 -> 303 ;
304 [label="TotalCharges <= 161.875\ngini = 0.494\nsamples = 38\nvalue = [21, 17]\nclass = No"] ;
303 -> 304 ;
305 [label="TotalCharges <= 104.05\ngini = 0.486\nsamples = 36\nvalue = [21, 15]\nclass = No"] ;
304 -> 305 ;
306 [label="TotalCharges <= 92.175\ngini = 0.496\nsamples = 33\nvalue = [18, 15]\nclass = No"] ;
305 -> 306 ;
307 [label="MonthlyCharges <= 25.0\ngini = 0.487\nsamples = 31\nvalue = [18, 13]\nclass = No"] ;
306 -> 307 ;
308 [label="gini = 0.0\nsamples = 2\nvalue = [2, 0]\nclass = No"] ;
307 -> 308 ;
309 [label="TechSupport <= 0.5\ngini = 0.495\nsamples = 29\nvalue = [16, 13]\nclass = No"] ;
307 -> 309 ;
310 [label="TotalCharges <= 25.125\ngini = 0.49\nsamples = 28\nvalue = [16, 12]\nclass = No"] ;
309 -> 310 ;
311 [label="gini = 0.0\nsamples = 1\nvalue = [0, 1]\nclass = Yes"] ;
310 -> 311 ;
312 [label="MonthlyCharges <= 49.875\ngini = 0.483\nsamples = 27\nvalue = [16, 11]\nclass = No"] ;
310 -> 312 ;
313 [label="MonthlyCharges <= 48.675\ngini = 0.473\nsamples = 26\nvalue = [16, 10]\nclass = No"] ;
312 -> 313 ;
314 [label="PaymentMethod_Credit card (automatic) <= 0.5\ngini = 0.491\nsamples = 23\nvalue = [13, 10]\nclass = No"] ;
313 -> 314 ;
315 [label="TotalCharges <= 47.15\ngini = 0.472\nsamples = 21\nvalue = [13, 8]\nclass = No"] ;
314 -> 315 ;
316 [label="TotalCharges <= 44.1\ngini = 0.494\nsamples = 18\nvalue = [10, 8]\nclass = No"] ;
315 -> 316 ;
317 [label="TotalCharges <= 34.825\ngini = 0.32\nsamples = 5\nvalue = [4, 1]\nclass = No"] ;
316 -> 317 ;
318 [label="TotalCharges <= 25.475\ngini = 0.5\nsamples = 2\nvalue = [1, 1]\nclass = No"] ;
317 -> 318 ;
319 [label="gini = 0.0\nsamples = 1\nvalue = [1, 0]\nclass = No"] ;
318 -> 319 ;
320 [label="gini = 0.0\nsamples = 1\nvalue = [0, 1]\nclass = Yes"] ;
318 -> 320 ;
321 [label="gini = 0.0\nsamples = 3\nvalue = [3, 0]\nclass = No"] ;
317 -> 321 ;
322 [label="PaymentMethod_Bank transfer (automatic) <= 0.5\ngini = 0.497\nsamples = 13\nvalue = [6, 7]\nclass = Yes"] ;
316 -> 322 ;
323 [label="MonthlyCharges <= 44.225\ngini = 0.48\nsamples = 10\nvalue = [6, 4]\nclass = No"] ;
322 -> 323 ;
324 [label="gini = 0.0\nsamples = 1\nvalue = [0, 1]\nclass = Yes"] ;
323 -> 324 ;
325 [label="MonthlyCharges <= 45.125\ngini = 0.444\nsamples = 9\nvalue = [6, 3]\nclass = No"] ;
323 -> 325 ;
326 [label="gini = 0.0\nsamples = 2\nvalue = [2, 0]\nclass = No"] ;
325 -> 326 ;
327 [label="TotalCharges <= 45.35\ngini = 0.49\nsamples = 7\nvalue = [4, 3]\nclass = No"] ;
325 -> 327 ;
328 [label="gini = 0.0\nsamples = 1\nvalue = [0, 1]\nclass = Yes"] ;
327 -> 328 ;
329 [label="MonthlyCharges <= 45.625\ngini = 0.444\nsamples = 6\nvalue = [4, 2]\nclass = No"] ;
327 -> 329 ;
330 [label="gini = 0.0\nsamples = 2\nvalue = [2, 0]\nclass = No"] ;
329 -> 330 ;
331 [label="MonthlyCharges <= 45.75\ngini = 0.5\nsamples = 4\nvalue = [2, 2]\nclass = No"] ;
329 -> 331 ;
332 [label="gini = 0.0\nsamples = 1\nvalue = [0, 1]\nclass = Yes"] ;
331 -> 332 ;
333 [label="MonthlyCharges <= 45.825\ngini = 0.444\nsamples = 3\nvalue = [2, 1]\nclass = No"] ;
331 -> 333 ;
334 [label="gini = 0.0\nsamples = 1\nvalue = [1, 0]\nclass = No"] ;
333 -> 334 ;
335 [label="gini = 0.5\nsamples = 2\nvalue = [1, 1]\nclass = No"] ;
333 -> 335 ;
336 [label="gini = 0.0\nsamples = 3\nvalue = [0, 3]\nclass = Yes"] ;
322 -> 336 ;
337 [label="gini = 0.0\nsamples = 3\nvalue = [3, 0]\nclass = No"] ;
315 -> 337 ;
338 [label="gini = 0.0\nsamples = 2\nvalue = [0, 2]\nclass = Yes"] ;
314 -> 338 ;
339 [label="gini = 0.0\nsamples = 3\nvalue = [3, 0]\nclass = No"] ;
313 -> 339 ;
340 [label="gini = 0.0\nsamples = 1\nvalue = [0, 1]\nclass = Yes"] ;
312 -> 340 ;
341 [label="gini = 0.0\nsamples = 1\nvalue = [0, 1]\nclass = Yes"] ;
309 -> 341 ;
342 [label="gini = 0.0\nsamples = 2\nvalue = [0, 2]\nclass = Yes"] ;
306 -> 342 ;
343 [label="gini = 0.0\nsamples = 3\nvalue = [3, 0]\nclass = No"] ;
305 -> 343 ;
344 [label="gini = 0.0\nsamples = 2\nvalue = [0, 2]\nclass = Yes"] ;
304 -> 344 ;
345 [label="MonthlyCharges <= 50.675\ngini = 0.219\nsamples = 8\nvalue = [7, 1]\nclass = No"] ;
303 -> 345 ;
346 [label="MonthlyCharges <= 50.575\ngini = 0.375\nsamples = 4\nvalue = [3, 1]\nclass = No"] ;
345 -> 346 ;
347 [label="gini = 0.0\nsamples = 3\nvalue = [3, 0]\nclass = No"] ;
346 -> 347 ;
348 [label="gini = 0.0\nsamples = 1\nvalue = [0, 1]\nclass = Yes"] ;
346 -> 348 ;
349 [label="gini = 0.0\nsamples = 4\nvalue = [4, 0]\nclass = No"] ;
345 -> 349 ;
350 [label="MonthlyCharges <= 35.625\ngini = 0.408\nsamples = 7\nvalue = [2, 5]\nclass = Yes"] ;
302 -> 350 ;
351 [label="gini = 0.0\nsamples = 1\nvalue = [1, 0]\nclass = No"] ;
350 -> 351 ;
352 [label="MonthlyCharges <= 55.15\ngini = 0.278\nsamples = 6\nvalue = [1, 5]\nclass = Yes"] ;
350 -> 352 ;
353 [label="gini = 0.0\nsamples = 5\nvalue = [0, 5]\nclass = Yes"] ;
352 -> 353 ;
354 [label="gini = 0.0\nsamples = 1\nvalue = [1, 0]\nclass = No"] ;
352 -> 354 ;
355 [label="TotalCharges <= 142.65\ngini = 0.278\nsamples = 6\nvalue = [1, 5]\nclass = Yes"] ;
301 -> 355 ;
356 [label="gini = 0.0\nsamples = 5\nvalue = [0, 5]\nclass = Yes"] ;
355 -> 356 ;
357 [label="gini = 0.0\nsamples = 1\nvalue = [1, 0]\nclass = No"] ;
355 -> 357 ;
358 [label="gini = 0.0\nsamples = 4\nvalue = [0, 4]\nclass = Yes"] ;
298 -> 358 ;
359 [label="MonthlyCharges <= 30.375\ngini = 0.231\nsamples = 15\nvalue = [2, 13]\nclass = Yes"] ;
297 -> 359 ;
360 [label="gini = 0.0\nsamples = 1\nvalue = [1, 0]\nclass = No"] ;
359 -> 360 ;
361 [label="TotalCharges <= 63.65\ngini = 0.133\nsamples = 14\nvalue = [1, 13]\nclass = Yes"] ;
359 -> 361 ;
362 [label="MonthlyCharges <= 47.4\ngini = 0.444\nsamples = 3\nvalue = [1, 2]\nclass = Yes"] ;
361 -> 362 ;
363 [label="gini = 0.0\nsamples = 2\nvalue = [0, 2]\nclass = Yes"] ;
362 -> 363 ;
364 [label="gini = 0.0\nsamples = 1\nvalue = [1, 0]\nclass = No"] ;
362 -> 364 ;
365 [label="gini = 0.0\nsamples = 11\nvalue = [0, 11]\nclass = Yes"] ;
361 -> 365 ;
366 [label="MonthlyCharges <= 67.175\ngini = 0.165\nsamples = 11\nvalue = [10, 1]\nclass = No"] ;
296 -> 366 ;
367 [label="gini = 0.0\nsamples = 10\nvalue = [10, 0]\nclass = No"] ;
366 -> 367 ;
368 [label="gini = 0.0\nsamples = 1\nvalue = [0, 1]\nclass = Yes"] ;
366 -> 368 ;
369 [label="MonthlyCharges <= 30.825\ngini = 0.435\nsamples = 97\nvalue = [31, 66]\nclass = Yes"] ;
295 -> 369 ;
370 [label="TotalCharges <= 81.15\ngini = 0.499\nsamples = 23\nvalue = [12, 11]\nclass = No"] ;
369 -> 370 ;
371 [label="MonthlyCharges <= 29.725\ngini = 0.397\nsamples = 11\nvalue = [3, 8]\nclass = Yes"] ;
370 -> 371 ;
372 [label="TotalCharges <= 24.75\ngini = 0.32\nsamples = 10\nvalue = [2, 8]\nclass = Yes"] ;
371 -> 372 ;
373 [label="TotalCharges <= 24.325\ngini = 0.5\nsamples = 4\nvalue = [2, 2]\nclass = No"] ;
372 -> 373 ;
374 [label="gini = 0.0\nsamples = 2\nvalue = [0, 2]\nclass = Yes"] ;
373 -> 374 ;
375 [label="gini = 0.0\nsamples = 2\nvalue = [2, 0]\nclass = No"] ;
373 -> 375 ;
376 [label="gini = 0.0\nsamples = 6\nvalue = [0, 6]\nclass = Yes"] ;
372 -> 376 ;
377 [label="gini = 0.0\nsamples = 1\nvalue = [1, 0]\nclass = No"] ;
371 -> 377 ;
378 [label="TotalCharges <= 206.075\ngini = 0.375\nsamples = 12\nvalue = [9, 3]\nclass = No"] ;
370 -> 378 ;
379 [label="DeviceProtection <= 0.5\ngini = 0.18\nsamples = 10\nvalue = [9, 1]\nclass = No"] ;
378 -> 379 ;
380 [label="gini = 0.0\nsamples = 8\nvalue = [8, 0]\nclass = No"] ;
379 -> 380 ;
381 [label="MonthlyCharges <= 29.775\ngini = 0.5\nsamples = 2\nvalue = [1, 1]\nclass = No"] ;
379 -> 381 ;
382 [label="gini = 0.0\nsamples = 1\nvalue = [0, 1]\nclass = Yes"] ;
381 -> 382 ;
383 [label="gini = 0.0\nsamples = 1\nvalue = [1, 0]\nclass = No"] ;
381 -> 383 ;
384 [label="gini = 0.0\nsamples = 2\nvalue = [0, 2]\nclass = Yes"] ;
378 -> 384 ;
385 [label="MonthlyCharges <= 44.225\ngini = 0.382\nsamples = 74\nvalue = [19, 55]\nclass = Yes"] ;
369 -> 385 ;
386 [label="TotalCharges <= 150.15\ngini = 0.111\nsamples = 17\nvalue = [1, 16]\nclass = Yes"] ;
385 -> 386 ;
387 [label="gini = 0.0\nsamples = 16\nvalue = [0, 16]\nclass = Yes"] ;
386 -> 387 ;
388 [label="gini = 0.0\nsamples = 1\nvalue = [1, 0]\nclass = No"] ;
386 -> 388 ;
389 [label="TotalCharges <= 50.25\ngini = 0.432\nsamples = 57\nvalue = [18, 39]\nclass = Yes"] ;
385 -> 389 ;
390 [label="MonthlyCharges <= 49.7\ngini = 0.48\nsamples = 15\nvalue = [9, 6]\nclass = No"] ;
389 -> 390 ;
391 [label="TotalCharges <= 45.15\ngini = 0.496\nsamples = 11\nvalue = [5, 6]\nclass = Yes"] ;
390 -> 391 ;
392 [label="TotalCharges <= 44.575\ngini = 0.375\nsamples = 4\nvalue = [3, 1]\nclass = No"] ;
391 -> 392 ;
393 [label="gini = 0.0\nsamples = 1\nvalue = [0, 1]\nclass = Yes"] ;
392 -> 393 ;
394 [label="gini = 0.0\nsamples = 3\nvalue = [3, 0]\nclass = No"] ;
392 -> 394 ;
395 [label="TotalCharges <= 47.125\ngini = 0.408\nsamples = 7\nvalue = [2, 5]\nclass = Yes"] ;
391 -> 395 ;
396 [label="gini = 0.0\nsamples = 4\nvalue = [0, 4]\nclass = Yes"] ;
395 -> 396 ;
397 [label="TotalCharges <= 49.425\ngini = 0.444\nsamples = 3\nvalue = [2, 1]\nclass = No"] ;
395 -> 397 ;
398 [label="gini = 0.0\nsamples = 2\nvalue = [2, 0]\nclass = No"] ;
397 -> 398 ;
399 [label="gini = 0.0\nsamples = 1\nvalue = [0, 1]\nclass = Yes"] ;
397 -> 399 ;
400 [label="gini = 0.0\nsamples = 4\nvalue = [4, 0]\nclass = No"] ;
390 -> 400 ;
401 [label="MonthlyCharges <= 44.425\ngini = 0.337\nsamples = 42\nvalue = [9, 33]\nclass = Yes"] ;
389 -> 401 ;
402 [label="gini = 0.0\nsamples = 1\nvalue = [1, 0]\nclass = No"] ;
401 -> 402 ;
403 [label="MonthlyCharges <= 54.075\ngini = 0.314\nsamples = 41\nvalue = [8, 33]\nclass = Yes"] ;
401 -> 403 ;
404 [label="MonthlyCharges <= 46.6\ngini = 0.159\nsamples = 23\nvalue = [2, 21]\nclass = Yes"] ;
403 -> 404 ;
405 [label="TotalCharges <= 91.725\ngini = 0.408\nsamples = 7\nvalue = [2, 5]\nclass = Yes"] ;
404 -> 405 ;
406 [label="StreamingTV <= 0.5\ngini = 0.444\nsamples = 3\nvalue = [2, 1]\nclass = No"] ;
405 -> 406 ;
407 [label="gini = 0.0\nsamples = 2\nvalue = [2, 0]\nclass = No"] ;
406 -> 407 ;
408 [label="gini = 0.0\nsamples = 1\nvalue = [0, 1]\nclass = Yes"] ;
406 -> 408 ;
409 [label="gini = 0.0\nsamples = 4\nvalue = [0, 4]\nclass = Yes"] ;
405 -> 409 ;
410 [label="gini = 0.0\nsamples = 16\nvalue = [0, 16]\nclass = Yes"] ;
404 -> 410 ;
411 [label="MonthlyCharges <= 54.775\ngini = 0.444\nsamples = 18\nvalue = [6, 12]\nclass = Yes"] ;
403 -> 411 ;
412 [label="gini = 0.0\nsamples = 2\nvalue = [2, 0]\nclass = No"] ;
411 -> 412 ;
413 [label="MonthlyCharges <= 55.85\ngini = 0.375\nsamples = 16\nvalue = [4, 12]\nclass = Yes"] ;
411 -> 413 ;
414 [label="MonthlyCharges <= 55.125\ngini = 0.49\nsamples = 7\nvalue = [3, 4]\nclass = Yes"] ;
413 -> 414 ;
415 [label="gini = 0.0\nsamples = 2\nvalue = [0, 2]\nclass = Yes"] ;
414 -> 415 ;
416 [label="TotalCharges <= 152.4\ngini = 0.48\nsamples = 5\nvalue = [3, 2]\nclass = No"] ;
414 -> 416 ;
417 [label="MonthlyCharges <= 55.35\ngini = 0.375\nsamples = 4\nvalue = [3, 1]\nclass = No"] ;
416 -> 417 ;
418 [label="gini = 0.0\nsamples = 2\nvalue = [2, 0]\nclass = No"] ;
417 -> 418 ;
419 [label="MonthlyCharges <= 55.425\ngini = 0.5\nsamples = 2\nvalue = [1, 1]\nclass = No"] ;
417 -> 419 ;
420 [label="gini = 0.0\nsamples = 1\nvalue = [0, 1]\nclass = Yes"] ;
419 -> 420 ;
421 [label="gini = 0.0\nsamples = 1\nvalue = [1, 0]\nclass = No"] ;
419 -> 421 ;
422 [label="gini = 0.0\nsamples = 1\nvalue = [0, 1]\nclass = Yes"] ;
416 -> 422 ;
423 [label="TotalCharges <= 163.075\ngini = 0.198\nsamples = 9\nvalue = [1, 8]\nclass = Yes"] ;
413 -> 423 ;
424 [label="gini = 0.0\nsamples = 8\nvalue = [0, 8]\nclass = Yes"] ;
423 -> 424 ;
425 [label="gini = 0.0\nsamples = 1\nvalue = [1, 0]\nclass = No"] ;
423 -> 425 ;
426 [label="MonthlyCharges <= 29.625\ngini = 0.329\nsamples = 702\nvalue = [556, 146]\nclass = No"] ;
2 -> 426 ;
427 [label="TotalCharges <= 303.425\ngini = 0.155\nsamples = 153\nvalue = [140, 13]\nclass = No"] ;
426 -> 427 ;
428 [label="TotalCharges <= 285.9\ngini = 0.291\nsamples = 34\nvalue = [28, 6]\nclass = No"] ;
427 -> 428 ;
429 [label="MonthlyCharges <= 19.1\ngini = 0.142\nsamples = 26\nvalue = [24, 2]\nclass = No"] ;
428 -> 429 ;
430 [label="gini = 0.0\nsamples = 1\nvalue = [0, 1]\nclass = Yes"] ;
429 -> 430 ;
431 [label="MonthlyCharges <= 22.1\ngini = 0.077\nsamples = 25\nvalue = [24, 1]\nclass = No"] ;
429 -> 431 ;
432 [label="gini = 0.0\nsamples = 21\nvalue = [21, 0]\nclass = No"] ;
431 -> 432 ;
433 [label="PaymentMethod_Credit card (automatic) <= 0.5\ngini = 0.375\nsamples = 4\nvalue = [3, 1]\nclass = No"] ;
431 -> 433 ;
434 [label="gini = 0.0\nsamples = 3\nvalue = [3, 0]\nclass = No"] ;
433 -> 434 ;
435 [label="gini = 0.0\nsamples = 1\nvalue = [0, 1]\nclass = Yes"] ;
433 -> 435 ;
436 [label="TotalCharges <= 292.1\ngini = 0.5\nsamples = 8\nvalue = [4, 4]\nclass = No"] ;
428 -> 436 ;
437 [label="gini = 0.0\nsamples = 2\nvalue = [0, 2]\nclass = Yes"] ;
436 -> 437 ;
438 [label="StreamingMovies <= -0.5\ngini = 0.444\nsamples = 6\nvalue = [4, 2]\nclass = No"] ;
436 -> 438 ;
439 [label="PaymentMethod_Bank transfer (automatic) <= 0.5\ngini = 0.32\nsamples = 5\nvalue = [4, 1]\nclass = No"] ;
438 -> 439 ;
440 [label="gini = 0.0\nsamples = 4\nvalue = [4, 0]\nclass = No"] ;
439 -> 440 ;
441 [label="gini = 0.0\nsamples = 1\nvalue = [0, 1]\nclass = Yes"] ;
439 -> 441 ;
442 [label="gini = 0.0\nsamples = 1\nvalue = [0, 1]\nclass = Yes"] ;
438 -> 442 ;
443 [label="TechSupport <= 0.5\ngini = 0.111\nsamples = 119\nvalue = [112, 7]\nclass = No"] ;
427 -> 443 ;
444 [label="TotalCharges <= 1139.85\ngini = 0.097\nsamples = 117\nvalue = [111, 6]\nclass = No"] ;
443 -> 444 ;
445 [label="TechSupport <= -0.5\ngini = 0.085\nsamples = 113\nvalue = [108, 5]\nclass = No"] ;
444 -> 445 ;
446 [label="MonthlyCharges <= 19.675\ngini = 0.063\nsamples = 92\nvalue = [89, 3]\nclass = No"] ;
445 -> 446 ;
447 [label="MonthlyCharges <= 19.625\ngini = 0.137\nsamples = 27\nvalue = [25, 2]\nclass = No"] ;
446 -> 447 ;
448 [label="PaymentMethod_Electronic check <= 0.5\ngini = 0.077\nsamples = 25\nvalue = [24, 1]\nclass = No"] ;
447 -> 448 ;
449 [label="gini = 0.0\nsamples = 22\nvalue = [22, 0]\nclass = No"] ;
448 -> 449 ;
450 [label="PaperlessBilling <= 0.5\ngini = 0.444\nsamples = 3\nvalue = [2, 1]\nclass = No"] ;
448 -> 450 ;
451 [label="gini = 0.0\nsamples = 2\nvalue = [2, 0]\nclass = No"] ;
450 -> 451 ;
452 [label="gini = 0.0\nsamples = 1\nvalue = [0, 1]\nclass = Yes"] ;
450 -> 452 ;
453 [label="PaymentMethod_Mailed check <= 0.5\ngini = 0.5\nsamples = 2\nvalue = [1, 1]\nclass = No"] ;
447 -> 453 ;
454 [label="gini = 0.0\nsamples = 1\nvalue = [0, 1]\nclass = Yes"] ;
453 -> 454 ;
455 [label="gini = 0.0\nsamples = 1\nvalue = [1, 0]\nclass = No"] ;
453 -> 455 ;
456 [label="MonthlyCharges <= 22.625\ngini = 0.03\nsamples = 65\nvalue = [64, 1]\nclass = No"] ;
446 -> 456 ;
457 [label="gini = 0.0\nsamples = 47\nvalue = [47, 0]\nclass = No"] ;
456 -> 457 ;
458 [label="MonthlyCharges <= 24.175\ngini = 0.105\nsamples = 18\nvalue = [17, 1]\nclass = No"] ;
456 -> 458 ;
459 [label="PaymentMethod_Mailed check <= 0.5\ngini = 0.5\nsamples = 2\nvalue = [1, 1]\nclass = No"] ;
458 -> 459 ;
460 [label="gini = 0.0\nsamples = 1\nvalue = [1, 0]\nclass = No"] ;
459 -> 460 ;
461 [label="gini = 0.0\nsamples = 1\nvalue = [0, 1]\nclass = Yes"] ;
459 -> 461 ;
462 [label="gini = 0.0\nsamples = 16\nvalue = [16, 0]\nclass = No"] ;
458 -> 462 ;
463 [label="MonthlyCharges <= 24.65\ngini = 0.172\nsamples = 21\nvalue = [19, 2]\nclass = No"] ;
445 -> 463 ;
464 [label="MonthlyCharges <= 24.3\ngini = 0.5\nsamples = 2\nvalue = [1, 1]\nclass = No"] ;
463 -> 464 ;
465 [label="gini = 0.0\nsamples = 1\nvalue = [1, 0]\nclass = No"] ;
464 -> 465 ;
466 [label="gini = 0.0\nsamples = 1\nvalue = [0, 1]\nclass = Yes"] ;
464 -> 466 ;
467 [label="TotalCharges <= 700.425\ngini = 0.1\nsamples = 19\nvalue = [18, 1]\nclass = No"] ;
463 -> 467 ;
468 [label="gini = 0.0\nsamples = 14\nvalue = [14, 0]\nclass = No"] ;
467 -> 468 ;
469 [label="TotalCharges <= 751.025\ngini = 0.32\nsamples = 5\nvalue = [4, 1]\nclass = No"] ;
467 -> 469 ;
470 [label="gini = 0.0\nsamples = 1\nvalue = [0, 1]\nclass = Yes"] ;
469 -> 470 ;
471 [label="gini = 0.0\nsamples = 4\nvalue = [4, 0]\nclass = No"] ;
469 -> 471 ;
472 [label="TotalCharges <= 1203.3\ngini = 0.375\nsamples = 4\nvalue = [3, 1]\nclass = No"] ;
444 -> 472 ;
473 [label="gini = 0.0\nsamples = 1\nvalue = [0, 1]\nclass = Yes"] ;
472 -> 473 ;
474 [label="gini = 0.0\nsamples = 3\nvalue = [3, 0]\nclass = No"] ;
472 -> 474 ;
475 [label="MonthlyCharges <= 28.95\ngini = 0.5\nsamples = 2\nvalue = [1, 1]\nclass = No"] ;
443 -> 475 ;
476 [label="gini = 0.0\nsamples = 1\nvalue = [0, 1]\nclass = Yes"] ;
475 -> 476 ;
477 [label="gini = 0.0\nsamples = 1\nvalue = [1, 0]\nclass = No"] ;
475 -> 477 ;
478 [label="TotalCharges <= 1215.975\ngini = 0.367\nsamples = 549\nvalue = [416, 133]\nclass = No"] ;
426 -> 478 ;
479 [label="OnlineBackup <= 0.5\ngini = 0.416\nsamples = 336\nvalue = [237, 99]\nclass = No"] ;
478 -> 479 ;
480 [label="PaymentMethod_Electronic check <= 0.5\ngini = 0.444\nsamples = 246\nvalue = [164, 82]\nclass = No"] ;
479 -> 480 ;
481 [label="TotalCharges <= 849.9\ngini = 0.387\nsamples = 156\nvalue = [115, 41]\nclass = No"] ;
480 -> 481 ;
482 [label="TechSupport <= 0.5\ngini = 0.331\nsamples = 110\nvalue = [87, 23]\nclass = No"] ;
481 -> 482 ;
483 [label="TotalCharges <= 520.4\ngini = 0.259\nsamples = 72\nvalue = [61, 11]\nclass = No"] ;
482 -> 483 ;
484 [label="TotalCharges <= 496.55\ngini = 0.349\nsamples = 40\nvalue = [31, 9]\nclass = No"] ;
483 -> 484 ;
485 [label="PaperlessBilling <= 0.5\ngini = 0.307\nsamples = 37\nvalue = [30, 7]\nclass = No"] ;
484 -> 485 ;
486 [label="TotalCharges <= 258.025\ngini = 0.117\nsamples = 16\nvalue = [15, 1]\nclass = No"] ;
485 -> 486 ;
487 [label="TotalCharges <= 233.45\ngini = 0.5\nsamples = 2\nvalue = [1, 1]\nclass = No"] ;
486 -> 487 ;
488 [label="gini = 0.0\nsamples = 1\nvalue = [1, 0]\nclass = No"] ;
487 -> 488 ;
489 [label="gini = 0.0\nsamples = 1\nvalue = [0, 1]\nclass = Yes"] ;
487 -> 489 ;
490 [label="gini = 0.0\nsamples = 14\nvalue = [14, 0]\nclass = No"] ;
486 -> 490 ;
491 [label="MonthlyCharges <= 64.1\ngini = 0.408\nsamples = 21\nvalue = [15, 6]\nclass = No"] ;
485 -> 491 ;
492 [label="MonthlyCharges <= 45.45\ngini = 0.375\nsamples = 20\nvalue = [15, 5]\nclass = No"] ;
491 -> 492 ;
493 [label="TotalCharges <= 323.3\ngini = 0.494\nsamples = 9\nvalue = [5, 4]\nclass = No"] ;
492 -> 493 ;
494 [label="gini = 0.0\nsamples = 2\nvalue = [0, 2]\nclass = Yes"] ;
493 -> 494 ;
495 [label="MonthlyCharges <= 40.0\ngini = 0.408\nsamples = 7\nvalue = [5, 2]\nclass = No"] ;
493 -> 495 ;
496 [label="gini = 0.0\nsamples = 4\nvalue = [4, 0]\nclass = No"] ;
495 -> 496 ;
497 [label="TotalCharges <= 375.75\ngini = 0.444\nsamples = 3\nvalue = [1, 2]\nclass = Yes"] ;
495 -> 497 ;
498 [label="gini = 0.0\nsamples = 1\nvalue = [1, 0]\nclass = No"] ;
497 -> 498 ;
499 [label="gini = 0.0\nsamples = 2\nvalue = [0, 2]\nclass = Yes"] ;
497 -> 499 ;
500 [label="TotalCharges <= 349.125\ngini = 0.165\nsamples = 11\nvalue = [10, 1]\nclass = No"] ;
492 -> 500 ;
501 [label="gini = 0.0\nsamples = 6\nvalue = [6, 0]\nclass = No"] ;
500 -> 501 ;
502 [label="PaymentMethod_Mailed check <= 0.5\ngini = 0.32\nsamples = 5\nvalue = [4, 1]\nclass = No"] ;
500 -> 502 ;
503 [label="gini = 0.0\nsamples = 4\nvalue = [4, 0]\nclass = No"] ;
502 -> 503 ;
504 [label="gini = 0.0\nsamples = 1\nvalue = [0, 1]\nclass = Yes"] ;
502 -> 504 ;
505 [label="gini = 0.0\nsamples = 1\nvalue = [0, 1]\nclass = Yes"] ;
491 -> 505 ;
506 [label="StreamingMovies <= 0.5\ngini = 0.444\nsamples = 3\nvalue = [1, 2]\nclass = Yes"] ;
484 -> 506 ;
507 [label="gini = 0.0\nsamples = 2\nvalue = [0, 2]\nclass = Yes"] ;
506 -> 507 ;
508 [label="gini = 0.0\nsamples = 1\nvalue = [1, 0]\nclass = No"] ;
506 -> 508 ;
509 [label="MonthlyCharges <= 32.175\ngini = 0.117\nsamples = 32\nvalue = [30, 2]\nclass = No"] ;
483 -> 509 ;
510 [label="PaymentMethod_Mailed check <= 0.5\ngini = 0.444\nsamples = 3\nvalue = [2, 1]\nclass = No"] ;
509 -> 510 ;
511 [label="gini = 0.0\nsamples = 1\nvalue = [0, 1]\nclass = Yes"] ;
510 -> 511 ;
512 [label="gini = 0.0\nsamples = 2\nvalue = [2, 0]\nclass = No"] ;
510 -> 512 ;
513 [label="StreamingMovies <= 0.5\ngini = 0.067\nsamples = 29\nvalue = [28, 1]\nclass = No"] ;
509 -> 513 ;
514 [label="gini = 0.0\nsamples = 23\nvalue = [23, 0]\nclass = No"] ;
513 -> 514 ;
515 [label="StreamingTV <= 0.5\ngini = 0.278\nsamples = 6\nvalue = [5, 1]\nclass = No"] ;
513 -> 515 ;
516 [label="gini = 0.0\nsamples = 4\nvalue = [4, 0]\nclass = No"] ;
515 -> 516 ;
517 [label="MonthlyCharges <= 58.275\ngini = 0.5\nsamples = 2\nvalue = [1, 1]\nclass = No"] ;
515 -> 517 ;
518 [label="gini = 0.0\nsamples = 1\nvalue = [0, 1]\nclass = Yes"] ;
517 -> 518 ;
519 [label="gini = 0.0\nsamples = 1\nvalue = [1, 0]\nclass = No"] ;
517 -> 519 ;
520 [label="PaymentMethod_Credit card (automatic) <= 0.5\ngini = 0.432\nsamples = 38\nvalue = [26, 12]\nclass = No"] ;
482 -> 520 ;
521 [label="StreamingTV <= 0.5\ngini = 0.358\nsamples = 30\nvalue = [23, 7]\nclass = No"] ;
520 -> 521 ;
522 [label="MonthlyCharges <= 50.15\ngini = 0.236\nsamples = 22\nvalue = [19, 3]\nclass = No"] ;
521 -> 522 ;
523 [label="gini = 0.0\nsamples = 8\nvalue = [8, 0]\nclass = No"] ;
522 -> 523 ;
524 [label="MonthlyCharges <= 50.9\ngini = 0.337\nsamples = 14\nvalue = [11, 3]\nclass = No"] ;
522 -> 524 ;
525 [label="PaymentMethod_Bank transfer (automatic) <= 0.5\ngini = 0.444\nsamples = 3\nvalue = [1, 2]\nclass = Yes"] ;
524 -> 525 ;
526 [label="gini = 0.0\nsamples = 1\nvalue = [1, 0]\nclass = No"] ;
525 -> 526 ;
527 [label="gini = 0.0\nsamples = 2\nvalue = [0, 2]\nclass = Yes"] ;
525 -> 527 ;
528 [label="TotalCharges <= 642.2\ngini = 0.165\nsamples = 11\nvalue = [10, 1]\nclass = No"] ;
524 -> 528 ;
529 [label="gini = 0.0\nsamples = 8\nvalue = [8, 0]\nclass = No"] ;
528 -> 529 ;
530 [label="MonthlyCharges <= 55.425\ngini = 0.444\nsamples = 3\nvalue = [2, 1]\nclass = No"] ;
528 -> 530 ;
531 [label="gini = 0.0\nsamples = 2\nvalue = [2, 0]\nclass = No"] ;
530 -> 531 ;
532 [label="gini = 0.0\nsamples = 1\nvalue = [0, 1]\nclass = Yes"] ;
530 -> 532 ;
533 [label="MonthlyCharges <= 59.0\ngini = 0.5\nsamples = 8\nvalue = [4, 4]\nclass = No"] ;
521 -> 533 ;
534 [label="gini = 0.0\nsamples = 2\nvalue = [0, 2]\nclass = Yes"] ;
533 -> 534 ;
535 [label="TotalCharges <= 430.95\ngini = 0.444\nsamples = 6\nvalue = [4, 2]\nclass = No"] ;
533 -> 535 ;
536 [label="TotalCharges <= 301.65\ngini = 0.444\nsamples = 3\nvalue = [1, 2]\nclass = Yes"] ;
535 -> 536 ;
537 [label="gini = 0.0\nsamples = 1\nvalue = [1, 0]\nclass = No"] ;
536 -> 537 ;
538 [label="gini = 0.0\nsamples = 2\nvalue = [0, 2]\nclass = Yes"] ;
536 -> 538 ;
539 [label="gini = 0.0\nsamples = 3\nvalue = [3, 0]\nclass = No"] ;
535 -> 539 ;
540 [label="PaperlessBilling <= 0.5\ngini = 0.469\nsamples = 8\nvalue = [3, 5]\nclass = Yes"] ;
520 -> 540 ;
541 [label="gini = 0.0\nsamples = 4\nvalue = [0, 4]\nclass = Yes"] ;
540 -> 541 ;
542 [label="MonthlyCharges <= 54.75\ngini = 0.375\nsamples = 4\nvalue = [3, 1]\nclass = No"] ;
540 -> 542 ;
543 [label="TotalCharges <= 703.925\ngini = 0.5\nsamples = 2\nvalue = [1, 1]\nclass = No"] ;
542 -> 543 ;
544 [label="gini = 0.0\nsamples = 1\nvalue = [0, 1]\nclass = Yes"] ;
543 -> 544 ;
545 [label="gini = 0.0\nsamples = 1\nvalue = [1, 0]\nclass = No"] ;
543 -> 545 ;
546 [label="gini = 0.0\nsamples = 2\nvalue = [2, 0]\nclass = No"] ;
542 -> 546 ;
547 [label="StreamingMovies <= 0.5\ngini = 0.476\nsamples = 46\nvalue = [28, 18]\nclass = No"] ;
481 -> 547 ;
548 [label="TotalCharges <= 904.625\ngini = 0.424\nsamples = 36\nvalue = [25, 11]\nclass = No"] ;
547 -> 548 ;
549 [label="TotalCharges <= 896.25\ngini = 0.444\nsamples = 6\nvalue = [2, 4]\nclass = Yes"] ;
548 -> 549 ;
550 [label="StreamingTV <= 0.5\ngini = 0.5\nsamples = 4\nvalue = [2, 2]\nclass = No"] ;
549 -> 550 ;
551 [label="MonthlyCharges <= 47.275\ngini = 0.444\nsamples = 3\nvalue = [2, 1]\nclass = No"] ;
550 -> 551 ;
552 [label="gini = 0.0\nsamples = 1\nvalue = [1, 0]\nclass = No"] ;
551 -> 552 ;
553 [label="TotalCharges <= 885.525\ngini = 0.5\nsamples = 2\nvalue = [1, 1]\nclass = No"] ;
551 -> 553 ;
554 [label="gini = 0.0\nsamples = 1\nvalue = [0, 1]\nclass = Yes"] ;
553 -> 554 ;
555 [label="gini = 0.0\nsamples = 1\nvalue = [1, 0]\nclass = No"] ;
553 -> 555 ;
556 [label="gini = 0.0\nsamples = 1\nvalue = [0, 1]\nclass = Yes"] ;
550 -> 556 ;
557 [label="gini = 0.0\nsamples = 2\nvalue = [0, 2]\nclass = Yes"] ;
549 -> 557 ;
558 [label="PaymentMethod_Mailed check <= 0.5\ngini = 0.358\nsamples = 30\nvalue = [23, 7]\nclass = No"] ;
548 -> 558 ;
559 [label="MonthlyCharges <= 49.575\ngini = 0.484\nsamples = 17\nvalue = [10, 7]\nclass = No"] ;
558 -> 559 ;
560 [label="StreamingTV <= 0.5\ngini = 0.32\nsamples = 5\nvalue = [1, 4]\nclass = Yes"] ;
559 -> 560 ;
561 [label="gini = 0.0\nsamples = 4\nvalue = [0, 4]\nclass = Yes"] ;
560 -> 561 ;
562 [label="gini = 0.0\nsamples = 1\nvalue = [1, 0]\nclass = No"] ;
560 -> 562 ;
563 [label="MonthlyCharges <= 68.8\ngini = 0.375\nsamples = 12\nvalue = [9, 3]\nclass = No"] ;
559 -> 563 ;
564 [label="TotalCharges <= 1052.3\ngini = 0.298\nsamples = 11\nvalue = [9, 2]\nclass = No"] ;
563 -> 564 ;
565 [label="TotalCharges <= 1013.0\ngini = 0.444\nsamples = 6\nvalue = [4, 2]\nclass = No"] ;
564 -> 565 ;
566 [label="PaymentMethod_Bank transfer (automatic) <= 0.5\ngini = 0.32\nsamples = 5\nvalue = [4, 1]\nclass = No"] ;
565 -> 566 ;
567 [label="gini = 0.0\nsamples = 3\nvalue = [3, 0]\nclass = No"] ;
566 -> 567 ;
568 [label="DeviceProtection <= 0.5\ngini = 0.5\nsamples = 2\nvalue = [1, 1]\nclass = No"] ;
566 -> 568 ;
569 [label="gini = 0.0\nsamples = 1\nvalue = [0, 1]\nclass = Yes"] ;
568 -> 569 ;
570 [label="gini = 0.0\nsamples = 1\nvalue = [1, 0]\nclass = No"] ;
568 -> 570 ;
571 [label="gini = 0.0\nsamples = 1\nvalue = [0, 1]\nclass = Yes"] ;
565 -> 571 ;
572 [label="gini = 0.0\nsamples = 5\nvalue = [5, 0]\nclass = No"] ;
564 -> 572 ;
573 [label="gini = 0.0\nsamples = 1\nvalue = [0, 1]\nclass = Yes"] ;
563 -> 573 ;
574 [label="gini = 0.0\nsamples = 13\nvalue = [13, 0]\nclass = No"] ;
558 -> 574 ;
575 [label="MonthlyCharges <= 65.475\ngini = 0.42\nsamples = 10\nvalue = [3, 7]\nclass = Yes"] ;
547 -> 575 ;
576 [label="PaymentMethod_Mailed check <= 0.5\ngini = 0.346\nsamples = 9\nvalue = [2, 7]\nclass = Yes"] ;
575 -> 576 ;
577 [label="TotalCharges <= 1055.2\ngini = 0.444\nsamples = 6\nvalue = [2, 4]\nclass = Yes"] ;
576 -> 577 ;
578 [label="PaymentMethod_Bank transfer (automatic) <= 0.5\ngini = 0.32\nsamples = 5\nvalue = [1, 4]\nclass = Yes"] ;
577 -> 578 ;
579 [label="TotalCharges <= 1027.2\ngini = 0.5\nsamples = 2\nvalue = [1, 1]\nclass = No"] ;
578 -> 579 ;
580 [label="gini = 0.0\nsamples = 1\nvalue = [1, 0]\nclass = No"] ;
579 -> 580 ;
581 [label="gini = 0.0\nsamples = 1\nvalue = [0, 1]\nclass = Yes"] ;
579 -> 581 ;
582 [label="gini = 0.0\nsamples = 3\nvalue = [0, 3]\nclass = Yes"] ;
578 -> 582 ;
583 [label="gini = 0.0\nsamples = 1\nvalue = [1, 0]\nclass = No"] ;
577 -> 583 ;
584 [label="gini = 0.0\nsamples = 3\nvalue = [0, 3]\nclass = Yes"] ;
576 -> 584 ;
585 [label="gini = 0.0\nsamples = 1\nvalue = [1, 0]\nclass = No"] ;
575 -> 585 ;
586 [label="MonthlyCharges <= 59.5\ngini = 0.496\nsamples = 90\nvalue = [49, 41]\nclass = No"] ;
480 -> 586 ;
587 [label="MonthlyCharges <= 56.925\ngini = 0.5\nsamples = 74\nvalue = [36, 38]\nclass = Yes"] ;
586 -> 587 ;
588 [label="TotalCharges <= 881.9\ngini = 0.5\nsamples = 71\nvalue = [36, 35]\nclass = No"] ;
587 -> 588 ;
589 [label="TotalCharges <= 658.55\ngini = 0.495\nsamples = 58\nvalue = [26, 32]\nclass = Yes"] ;
588 -> 589 ;
590 [label="MonthlyCharges <= 35.15\ngini = 0.498\nsamples = 43\nvalue = [23, 20]\nclass = No"] ;
589 -> 590 ;
591 [label="gini = 0.0\nsamples = 5\nvalue = [0, 5]\nclass = Yes"] ;
590 -> 591 ;
592 [label="TotalCharges <= 527.7\ngini = 0.478\nsamples = 38\nvalue = [23, 15]\nclass = No"] ;
590 -> 592 ;
593 [label="TotalCharges <= 414.1\ngini = 0.498\nsamples = 30\nvalue = [16, 14]\nclass = No"] ;
592 -> 593 ;
594 [label="DeviceProtection <= 0.5\ngini = 0.444\nsamples = 21\nvalue = [14, 7]\nclass = No"] ;
593 -> 594 ;
595 [label="TechSupport <= 0.5\ngini = 0.36\nsamples = 17\nvalue = [13, 4]\nclass = No"] ;
594 -> 595 ;
596 [label="TotalCharges <= 360.325\ngini = 0.245\nsamples = 14\nvalue = [12, 2]\nclass = No"] ;
595 -> 596 ;
597 [label="gini = 0.0\nsamples = 9\nvalue = [9, 0]\nclass = No"] ;
596 -> 597 ;
598 [label="TotalCharges <= 403.475\ngini = 0.48\nsamples = 5\nvalue = [3, 2]\nclass = No"] ;
596 -> 598 ;
599 [label="gini = 0.0\nsamples = 2\nvalue = [0, 2]\nclass = Yes"] ;
598 -> 599 ;
600 [label="gini = 0.0\nsamples = 3\nvalue = [3, 0]\nclass = No"] ;
598 -> 600 ;
601 [label="TotalCharges <= 358.25\ngini = 0.444\nsamples = 3\nvalue = [1, 2]\nclass = Yes"] ;
595 -> 601 ;
602 [label="gini = 0.0\nsamples = 2\nvalue = [0, 2]\nclass = Yes"] ;
601 -> 602 ;
603 [label="gini = 0.0\nsamples = 1\nvalue = [1, 0]\nclass = No"] ;
601 -> 603 ;
604 [label="TechSupport <= 0.5\ngini = 0.375\nsamples = 4\nvalue = [1, 3]\nclass = Yes"] ;
594 -> 604 ;
605 [label="gini = 0.0\nsamples = 3\nvalue = [0, 3]\nclass = Yes"] ;
604 -> 605 ;
606 [label="gini = 0.0\nsamples = 1\nvalue = [1, 0]\nclass = No"] ;
604 -> 606 ;
607 [label="PaperlessBilling <= 0.5\ngini = 0.346\nsamples = 9\nvalue = [2, 7]\nclass = Yes"] ;
593 -> 607 ;
608 [label="gini = 0.0\nsamples = 3\nvalue = [0, 3]\nclass = Yes"] ;
607 -> 608 ;
609 [label="MonthlyCharges <= 44.8\ngini = 0.444\nsamples = 6\nvalue = [2, 4]\nclass = Yes"] ;
607 -> 609 ;
610 [label="gini = 0.0\nsamples = 3\nvalue = [0, 3]\nclass = Yes"] ;
609 -> 610 ;
611 [label="TotalCharges <= 446.95\ngini = 0.444\nsamples = 3\nvalue = [2, 1]\nclass = No"] ;
609 -> 611 ;
612 [label="gini = 0.0\nsamples = 1\nvalue = [0, 1]\nclass = Yes"] ;
611 -> 612 ;
613 [label="gini = 0.0\nsamples = 2\nvalue = [2, 0]\nclass = No"] ;
611 -> 613 ;
614 [label="MonthlyCharges <= 51.475\ngini = 0.219\nsamples = 8\nvalue = [7, 1]\nclass = No"] ;
592 -> 614 ;
615 [label="gini = 0.0\nsamples = 5\nvalue = [5, 0]\nclass = No"] ;
614 -> 615 ;
616 [label="MonthlyCharges <= 54.0\ngini = 0.444\nsamples = 3\nvalue = [2, 1]\nclass = No"] ;
614 -> 616 ;
617 [label="gini = 0.0\nsamples = 1\nvalue = [0, 1]\nclass = Yes"] ;
616 -> 617 ;
618 [label="gini = 0.0\nsamples = 2\nvalue = [2, 0]\nclass = No"] ;
616 -> 618 ;
619 [label="MonthlyCharges <= 48.675\ngini = 0.32\nsamples = 15\nvalue = [3, 12]\nclass = Yes"] ;
589 -> 619 ;
620 [label="gini = 0.0\nsamples = 5\nvalue = [0, 5]\nclass = Yes"] ;
619 -> 620 ;
621 [label="MonthlyCharges <= 49.2\ngini = 0.42\nsamples = 10\nvalue = [3, 7]\nclass = Yes"] ;
619 -> 621 ;
622 [label="gini = 0.0\nsamples = 1\nvalue = [1, 0]\nclass = No"] ;
621 -> 622 ;
623 [label="MonthlyCharges <= 50.925\ngini = 0.346\nsamples = 9\nvalue = [2, 7]\nclass = Yes"] ;
621 -> 623 ;
624 [label="gini = 0.0\nsamples = 4\nvalue = [0, 4]\nclass = Yes"] ;
623 -> 624 ;
625 [label="PaperlessBilling <= 0.5\ngini = 0.48\nsamples = 5\nvalue = [2, 3]\nclass = Yes"] ;
623 -> 625 ;
626 [label="gini = 0.0\nsamples = 2\nvalue = [0, 2]\nclass = Yes"] ;
625 -> 626 ;
627 [label="TotalCharges <= 709.0\ngini = 0.444\nsamples = 3\nvalue = [2, 1]\nclass = No"] ;
625 -> 627 ;
628 [label="gini = 0.0\nsamples = 1\nvalue = [0, 1]\nclass = Yes"] ;
627 -> 628 ;
629 [label="gini = 0.0\nsamples = 2\nvalue = [2, 0]\nclass = No"] ;
627 -> 629 ;
630 [label="TotalCharges <= 1110.375\ngini = 0.355\nsamples = 13\nvalue = [10, 3]\nclass = No"] ;
588 -> 630 ;
631 [label="gini = 0.0\nsamples = 10\nvalue = [10, 0]\nclass = No"] ;
630 -> 631 ;
632 [label="gini = 0.0\nsamples = 3\nvalue = [0, 3]\nclass = Yes"] ;
630 -> 632 ;
633 [label="gini = 0.0\nsamples = 3\nvalue = [0, 3]\nclass = Yes"] ;
587 -> 633 ;
634 [label="MonthlyCharges <= 68.975\ngini = 0.305\nsamples = 16\nvalue = [13, 3]\nclass = No"] ;
586 -> 634 ;
635 [label="TotalCharges <= 728.45\ngini = 0.153\nsamples = 12\nvalue = [11, 1]\nclass = No"] ;
634 -> 635 ;
636 [label="gini = 0.0\nsamples = 8\nvalue = [8, 0]\nclass = No"] ;
635 -> 636 ;
637 [label="TotalCharges <= 821.525\ngini = 0.375\nsamples = 4\nvalue = [3, 1]\nclass = No"] ;
635 -> 637 ;
638 [label="gini = 0.0\nsamples = 1\nvalue = [0, 1]\nclass = Yes"] ;
637 -> 638 ;
639 [label="gini = 0.0\nsamples = 3\nvalue = [3, 0]\nclass = No"] ;
637 -> 639 ;
640 [label="MonthlyCharges <= 69.025\ngini = 0.5\nsamples = 4\nvalue = [2, 2]\nclass = No"] ;
634 -> 640 ;
641 [label="gini = 0.0\nsamples = 2\nvalue = [0, 2]\nclass = Yes"] ;
640 -> 641 ;
642 [label="gini = 0.0\nsamples = 2\nvalue = [2, 0]\nclass = No"] ;
640 -> 642 ;
643 [label="MonthlyCharges <= 31.075\ngini = 0.306\nsamples = 90\nvalue = [73, 17]\nclass = No"] ;
479 -> 643 ;
644 [label="PaperlessBilling <= 0.5\ngini = 0.375\nsamples = 4\nvalue = [1, 3]\nclass = Yes"] ;
643 -> 644 ;
645 [label="gini = 0.0\nsamples = 1\nvalue = [1, 0]\nclass = No"] ;
644 -> 645 ;
646 [label="gini = 0.0\nsamples = 3\nvalue = [0, 3]\nclass = Yes"] ;
644 -> 646 ;
647 [label="MonthlyCharges <= 55.075\ngini = 0.273\nsamples = 86\nvalue = [72, 14]\nclass = No"] ;
643 -> 647 ;
648 [label="StreamingTV <= 0.5\ngini = 0.117\nsamples = 48\nvalue = [45, 3]\nclass = No"] ;
647 -> 648 ;
649 [label="MonthlyCharges <= 33.85\ngini = 0.048\nsamples = 41\nvalue = [40, 1]\nclass = No"] ;
648 -> 649 ;
650 [label="MonthlyCharges <= 32.575\ngini = 0.444\nsamples = 3\nvalue = [2, 1]\nclass = No"] ;
649 -> 650 ;
651 [label="gini = 0.0\nsamples = 2\nvalue = [2, 0]\nclass = No"] ;
650 -> 651 ;
652 [label="gini = 0.0\nsamples = 1\nvalue = [0, 1]\nclass = Yes"] ;
650 -> 652 ;
653 [label="gini = 0.0\nsamples = 38\nvalue = [38, 0]\nclass = No"] ;
649 -> 653 ;
654 [label="TotalCharges <= 758.1\ngini = 0.408\nsamples = 7\nvalue = [5, 2]\nclass = No"] ;
648 -> 654 ;
655 [label="PaymentMethod_Credit card (automatic) <= 0.5\ngini = 0.444\nsamples = 3\nvalue = [1, 2]\nclass = Yes"] ;
654 -> 655 ;
656 [label="gini = 0.0\nsamples = 2\nvalue = [0, 2]\nclass = Yes"] ;
655 -> 656 ;
657 [label="gini = 0.0\nsamples = 1\nvalue = [1, 0]\nclass = No"] ;
655 -> 657 ;
658 [label="gini = 0.0\nsamples = 4\nvalue = [4, 0]\nclass = No"] ;
654 -> 658 ;
659 [label="TotalCharges <= 395.3\ngini = 0.411\nsamples = 38\nvalue = [27, 11]\nclass = No"] ;
647 -> 659 ;
660 [label="TechSupport <= 0.5\ngini = 0.496\nsamples = 11\nvalue = [5, 6]\nclass = Yes"] ;
659 -> 660 ;
661 [label="PaymentMethod_Credit card (automatic) <= 0.5\ngini = 0.494\nsamples = 9\nvalue = [5, 4]\nclass = No"] ;
660 -> 661 ;
662 [label="TotalCharges <= 379.675\ngini = 0.469\nsamples = 8\nvalue = [5, 3]\nclass = No"] ;
661 -> 662 ;
663 [label="TotalCharges <= 329.95\ngini = 0.408\nsamples = 7\nvalue = [5, 2]\nclass = No"] ;
662 -> 663 ;
664 [label="PaperlessBilling <= 0.5\ngini = 0.5\nsamples = 4\nvalue = [2, 2]\nclass = No"] ;
663 -> 664 ;
665 [label="gini = 0.0\nsamples = 1\nvalue = [1, 0]\nclass = No"] ;
664 -> 665 ;
666 [label="TotalCharges <= 248.125\ngini = 0.444\nsamples = 3\nvalue = [1, 2]\nclass = Yes"] ;
664 -> 666 ;
667 [label="gini = 0.0\nsamples = 1\nvalue = [1, 0]\nclass = No"] ;
666 -> 667 ;
668 [label="gini = 0.0\nsamples = 2\nvalue = [0, 2]\nclass = Yes"] ;
666 -> 668 ;
669 [label="gini = 0.0\nsamples = 3\nvalue = [3, 0]\nclass = No"] ;
663 -> 669 ;
670 [label="gini = 0.0\nsamples = 1\nvalue = [0, 1]\nclass = Yes"] ;
662 -> 670 ;
671 [label="gini = 0.0\nsamples = 1\nvalue = [0, 1]\nclass = Yes"] ;
661 -> 671 ;
672 [label="gini = 0.0\nsamples = 2\nvalue = [0, 2]\nclass = Yes"] ;
660 -> 672 ;
673 [label="TotalCharges <= 1168.45\ngini = 0.302\nsamples = 27\nvalue = [22, 5]\nclass = No"] ;
659 -> 673 ;
674 [label="TotalCharges <= 607.2\ngini = 0.26\nsamples = 26\nvalue = [22, 4]\nclass = No"] ;
673 -> 674 ;
675 [label="gini = 0.0\nsamples = 11\nvalue = [11, 0]\nclass = No"] ;
674 -> 675 ;
676 [label="MonthlyCharges <= 63.4\ngini = 0.391\nsamples = 15\nvalue = [11, 4]\nclass = No"] ;
674 -> 676 ;
677 [label="PaymentMethod_Credit card (automatic) <= 0.5\ngini = 0.18\nsamples = 10\nvalue = [9, 1]\nclass = No"] ;
676 -> 677 ;
678 [label="gini = 0.0\nsamples = 7\nvalue = [7, 0]\nclass = No"] ;
677 -> 678 ;
679 [label="TechSupport <= 0.5\ngini = 0.444\nsamples = 3\nvalue = [2, 1]\nclass = No"] ;
677 -> 679 ;
680 [label="gini = 0.0\nsamples = 2\nvalue = [2, 0]\nclass = No"] ;
679 -> 680 ;
681 [label="gini = 0.0\nsamples = 1\nvalue = [0, 1]\nclass = Yes"] ;
679 -> 681 ;
682 [label="MonthlyCharges <= 67.65\ngini = 0.48\nsamples = 5\nvalue = [2, 3]\nclass = Yes"] ;
676 -> 682 ;
683 [label="gini = 0.0\nsamples = 3\nvalue = [0, 3]\nclass = Yes"] ;
682 -> 683 ;
684 [label="gini = 0.0\nsamples = 2\nvalue = [2, 0]\nclass = No"] ;
682 -> 684 ;
685 [label="gini = 0.0\nsamples = 1\nvalue = [0, 1]\nclass = Yes"] ;
673 -> 685 ;
686 [label="TechSupport <= 0.5\ngini = 0.268\nsamples = 213\nvalue = [179, 34]\nclass = No"] ;
478 -> 686 ;
687 [label="TotalCharges <= 3112.225\ngini = 0.322\nsamples = 149\nvalue = [119, 30]\nclass = No"] ;
686 -> 687 ;
688 [label="TotalCharges <= 2108.85\ngini = 0.342\nsamples = 137\nvalue = [107, 30]\nclass = No"] ;
687 -> 688 ;
689 [label="MonthlyCharges <= 69.075\ngini = 0.268\nsamples = 88\nvalue = [74, 14]\nclass = No"] ;
688 -> 689 ;
690 [label="PaymentMethod_Bank transfer (automatic) <= 0.5\ngini = 0.254\nsamples = 87\nvalue = [74, 13]\nclass = No"] ;
689 -> 690 ;
691 [label="MonthlyCharges <= 32.675\ngini = 0.17\nsamples = 64\nvalue = [58, 6]\nclass = No"] ;
690 -> 691 ;
692 [label="TotalCharges <= 1444.575\ngini = 0.5\nsamples = 2\nvalue = [1, 1]\nclass = No"] ;
691 -> 692 ;
693 [label="gini = 0.0\nsamples = 1\nvalue = [0, 1]\nclass = Yes"] ;
692 -> 693 ;
694 [label="gini = 0.0\nsamples = 1\nvalue = [1, 0]\nclass = No"] ;
692 -> 694 ;
695 [label="MonthlyCharges <= 54.9\ngini = 0.148\nsamples = 62\nvalue = [57, 5]\nclass = No"] ;
691 -> 695 ;
696 [label="MonthlyCharges <= 50.7\ngini = 0.048\nsamples = 41\nvalue = [40, 1]\nclass = No"] ;
695 -> 696 ;
697 [label="gini = 0.0\nsamples = 30\nvalue = [30, 0]\nclass = No"] ;
696 -> 697 ;
698 [label="MonthlyCharges <= 50.8\ngini = 0.165\nsamples = 11\nvalue = [10, 1]\nclass = No"] ;
696 -> 698 ;
699 [label="gini = 0.0\nsamples = 1\nvalue = [0, 1]\nclass = Yes"] ;
698 -> 699 ;
700 [label="gini = 0.0\nsamples = 10\nvalue = [10, 0]\nclass = No"] ;
698 -> 700 ;
701 [label="MonthlyCharges <= 59.3\ngini = 0.308\nsamples = 21\nvalue = [17, 4]\nclass = No"] ;
695 -> 701 ;
702 [label="MonthlyCharges <= 57.425\ngini = 0.5\nsamples = 6\nvalue = [3, 3]\nclass = No"] ;
701 -> 702 ;
703 [label="MonthlyCharges <= 55.025\ngini = 0.375\nsamples = 4\nvalue = [3, 1]\nclass = No"] ;
702 -> 703 ;
704 [label="gini = 0.0\nsamples = 1\nvalue = [0, 1]\nclass = Yes"] ;
703 -> 704 ;
705 [label="gini = 0.0\nsamples = 3\nvalue = [3, 0]\nclass = No"] ;
703 -> 705 ;
706 [label="gini = 0.0\nsamples = 2\nvalue = [0, 2]\nclass = Yes"] ;
702 -> 706 ;
707 [label="TotalCharges <= 1424.8\ngini = 0.124\nsamples = 15\nvalue = [14, 1]\nclass = No"] ;
701 -> 707 ;
708 [label="PaymentMethod_Mailed check <= 0.5\ngini = 0.375\nsamples = 4\nvalue = [3, 1]\nclass = No"] ;
707 -> 708 ;
709 [label="gini = 0.0\nsamples = 3\nvalue = [3, 0]\nclass = No"] ;
708 -> 709 ;
710 [label="gini = 0.0\nsamples = 1\nvalue = [0, 1]\nclass = Yes"] ;
708 -> 710 ;
711 [label="gini = 0.0\nsamples = 11\nvalue = [11, 0]\nclass = No"] ;
707 -> 711 ;
712 [label="TotalCharges <= 1529.05\ngini = 0.423\nsamples = 23\nvalue = [16, 7]\nclass = No"] ;
690 -> 712 ;
713 [label="OnlineBackup <= 0.5\ngini = 0.5\nsamples = 10\nvalue = [5, 5]\nclass = No"] ;
712 -> 713 ;
714 [label="TotalCharges <= 1261.1\ngini = 0.408\nsamples = 7\nvalue = [5, 2]\nclass = No"] ;
713 -> 714 ;
715 [label="gini = 0.0\nsamples = 1\nvalue = [0, 1]\nclass = Yes"] ;
714 -> 715 ;
716 [label="DeviceProtection <= 0.5\ngini = 0.278\nsamples = 6\nvalue = [5, 1]\nclass = No"] ;
714 -> 716 ;
717 [label="StreamingMovies <= 0.5\ngini = 0.5\nsamples = 2\nvalue = [1, 1]\nclass = No"] ;
716 -> 717 ;
718 [label="gini = 0.0\nsamples = 1\nvalue = [0, 1]\nclass = Yes"] ;
717 -> 718 ;
719 [label="gini = 0.0\nsamples = 1\nvalue = [1, 0]\nclass = No"] ;
717 -> 719 ;
720 [label="gini = 0.0\nsamples = 4\nvalue = [4, 0]\nclass = No"] ;
716 -> 720 ;
721 [label="gini = 0.0\nsamples = 3\nvalue = [0, 3]\nclass = Yes"] ;
713 -> 721 ;
722 [label="TotalCharges <= 1927.575\ngini = 0.26\nsamples = 13\nvalue = [11, 2]\nclass = No"] ;
712 -> 722 ;
723 [label="gini = 0.0\nsamples = 10\nvalue = [10, 0]\nclass = No"] ;
722 -> 723 ;
724 [label="DeviceProtection <= 0.5\ngini = 0.444\nsamples = 3\nvalue = [1, 2]\nclass = Yes"] ;
722 -> 724 ;
725 [label="gini = 0.0\nsamples = 1\nvalue = [1, 0]\nclass = No"] ;
724 -> 725 ;
726 [label="gini = 0.0\nsamples = 2\nvalue = [0, 2]\nclass = Yes"] ;
724 -> 726 ;
727 [label="gini = 0.0\nsamples = 1\nvalue = [0, 1]\nclass = Yes"] ;
689 -> 727 ;
728 [label="PaymentMethod_Electronic check <= 0.5\ngini = 0.44\nsamples = 49\nvalue = [33, 16]\nclass = No"] ;
688 -> 728 ;
729 [label="TotalCharges <= 2886.425\ngini = 0.328\nsamples = 29\nvalue = [23, 6]\nclass = No"] ;
728 -> 729 ;
730 [label="StreamingMovies <= 0.5\ngini = 0.252\nsamples = 27\nvalue = [23, 4]\nclass = No"] ;
729 -> 730 ;
731 [label="PaymentMethod_Credit card (automatic) <= 0.5\ngini = 0.1\nsamples = 19\nvalue = [18, 1]\nclass = No"] ;
730 -> 731 ;
732 [label="gini = 0.0\nsamples = 13\nvalue = [13, 0]\nclass = No"] ;
731 -> 732 ;
733 [label="TotalCharges <= 2262.875\ngini = 0.278\nsamples = 6\nvalue = [5, 1]\nclass = No"] ;
731 -> 733 ;
734 [label="MonthlyCharges <= 58.3\ngini = 0.444\nsamples = 3\nvalue = [2, 1]\nclass = No"] ;
733 -> 734 ;
735 [label="gini = 0.0\nsamples = 1\nvalue = [0, 1]\nclass = Yes"] ;
734 -> 735 ;
736 [label="gini = 0.0\nsamples = 2\nvalue = [2, 0]\nclass = No"] ;
734 -> 736 ;
737 [label="gini = 0.0\nsamples = 3\nvalue = [3, 0]\nclass = No"] ;
733 -> 737 ;
738 [label="TotalCharges <= 2499.775\ngini = 0.469\nsamples = 8\nvalue = [5, 3]\nclass = No"] ;
730 -> 738 ;
739 [label="OnlineBackup <= 0.5\ngini = 0.375\nsamples = 4\nvalue = [1, 3]\nclass = Yes"] ;
738 -> 739 ;
740 [label="StreamingTV <= 0.5\ngini = 0.5\nsamples = 2\nvalue = [1, 1]\nclass = No"] ;
739 -> 740 ;
741 [label="gini = 0.0\nsamples = 1\nvalue = [0, 1]\nclass = Yes"] ;
740 -> 741 ;
742 [label="gini = 0.0\nsamples = 1\nvalue = [1, 0]\nclass = No"] ;
740 -> 742 ;
743 [label="gini = 0.0\nsamples = 2\nvalue = [0, 2]\nclass = Yes"] ;
739 -> 743 ;
744 [label="gini = 0.0\nsamples = 4\nvalue = [4, 0]\nclass = No"] ;
738 -> 744 ;
745 [label="gini = 0.0\nsamples = 2\nvalue = [0, 2]\nclass = Yes"] ;
729 -> 745 ;
746 [label="TotalCharges <= 2209.525\ngini = 0.5\nsamples = 20\nvalue = [10, 10]\nclass = No"] ;
728 -> 746 ;
747 [label="gini = 0.0\nsamples = 5\nvalue = [0, 5]\nclass = Yes"] ;
746 -> 747 ;
748 [label="MonthlyCharges <= 49.4\ngini = 0.444\nsamples = 15\nvalue = [10, 5]\nclass = No"] ;
746 -> 748 ;
749 [label="MonthlyCharges <= 45.075\ngini = 0.48\nsamples = 5\nvalue = [2, 3]\nclass = Yes"] ;
748 -> 749 ;
750 [label="OnlineBackup <= 0.5\ngini = 0.444\nsamples = 3\nvalue = [2, 1]\nclass = No"] ;
749 -> 750 ;
751 [label="MonthlyCharges <= 44.575\ngini = 0.5\nsamples = 2\nvalue = [1, 1]\nclass = No"] ;
750 -> 751 ;
752 [label="gini = 0.0\nsamples = 1\nvalue = [1, 0]\nclass = No"] ;
751 -> 752 ;
753 [label="gini = 0.0\nsamples = 1\nvalue = [0, 1]\nclass = Yes"] ;
751 -> 753 ;
754 [label="gini = 0.0\nsamples = 1\nvalue = [1, 0]\nclass = No"] ;
750 -> 754 ;
755 [label="gini = 0.0\nsamples = 2\nvalue = [0, 2]\nclass = Yes"] ;
749 -> 755 ;
756 [label="StreamingTV <= 0.5\ngini = 0.32\nsamples = 10\nvalue = [8, 2]\nclass = No"] ;
748 -> 756 ;
757 [label="gini = 0.0\nsamples = 4\nvalue = [4, 0]\nclass = No"] ;
756 -> 757 ;
758 [label="MonthlyCharges <= 50.525\ngini = 0.444\nsamples = 6\nvalue = [4, 2]\nclass = No"] ;
756 -> 758 ;
759 [label="gini = 0.0\nsamples = 3\nvalue = [3, 0]\nclass = No"] ;
758 -> 759 ;
760 [label="TotalCharges <= 2280.3\ngini = 0.444\nsamples = 3\nvalue = [1, 2]\nclass = Yes"] ;
758 -> 760 ;
761 [label="gini = 0.0\nsamples = 1\nvalue = [1, 0]\nclass = No"] ;
760 -> 761 ;
762 [label="gini = 0.0\nsamples = 2\nvalue = [0, 2]\nclass = Yes"] ;
760 -> 762 ;
763 [label="gini = 0.0\nsamples = 12\nvalue = [12, 0]\nclass = No"] ;
687 -> 763 ;
764 [label="PaymentMethod_Credit card (automatic) <= 0.5\ngini = 0.117\nsamples = 64\nvalue = [60, 4]\nclass = No"] ;
686 -> 764 ;
765 [label="PaperlessBilling <= 0.5\ngini = 0.074\nsamples = 52\nvalue = [50, 2]\nclass = No"] ;
764 -> 765 ;
766 [label="gini = 0.0\nsamples = 30\nvalue = [30, 0]\nclass = No"] ;
765 -> 766 ;
767 [label="TotalCharges <= 2880.35\ngini = 0.165\nsamples = 22\nvalue = [20, 2]\nclass = No"] ;
765 -> 767 ;
768 [label="MonthlyCharges <= 59.55\ngini = 0.1\nsamples = 19\nvalue = [18, 1]\nclass = No"] ;
767 -> 768 ;
769 [label="gini = 0.0\nsamples = 14\nvalue = [14, 0]\nclass = No"] ;
768 -> 769 ;
770 [label="MonthlyCharges <= 60.45\ngini = 0.32\nsamples = 5\nvalue = [4, 1]\nclass = No"] ;
768 -> 770 ;
771 [label="gini = 0.0\nsamples = 1\nvalue = [0, 1]\nclass = Yes"] ;
770 -> 771 ;
772 [label="gini = 0.0\nsamples = 4\nvalue = [4, 0]\nclass = No"] ;
770 -> 772 ;
773 [label="TotalCharges <= 2992.05\ngini = 0.444\nsamples = 3\nvalue = [2, 1]\nclass = No"] ;
767 -> 773 ;
774 [label="gini = 0.0\nsamples = 1\nvalue = [0, 1]\nclass = Yes"] ;
773 -> 774 ;
775 [label="gini = 0.0\nsamples = 2\nvalue = [2, 0]\nclass = No"] ;
773 -> 775 ;
776 [label="PaperlessBilling <= 0.5\ngini = 0.278\nsamples = 12\nvalue = [10, 2]\nclass = No"] ;
764 -> 776 ;
777 [label="TotalCharges <= 2482.3\ngini = 0.48\nsamples = 5\nvalue = [3, 2]\nclass = No"] ;
776 -> 777 ;
778 [label="TotalCharges <= 1471.35\ngini = 0.444\nsamples = 3\nvalue = [1, 2]\nclass = Yes"] ;
777 -> 778 ;
779 [label="gini = 0.0\nsamples = 1\nvalue = [1, 0]\nclass = No"] ;
778 -> 779 ;
780 [label="gini = 0.0\nsamples = 2\nvalue = [0, 2]\nclass = Yes"] ;
778 -> 780 ;
781 [label="gini = 0.0\nsamples = 2\nvalue = [2, 0]\nclass = No"] ;
777 -> 781 ;
782 [label="gini = 0.0\nsamples = 7\nvalue = [7, 0]\nclass = No"] ;
776 -> 782 ;
783 [label="TotalCharges <= 1150.45\ngini = 0.497\nsamples = 1779\nvalue = [824, 955]\nclass = Yes"] ;
1 -> 783 ;
784 [label="TotalCharges <= 110.85\ngini = 0.43\nsamples = 806\nvalue = [252, 554]\nclass = Yes"] ;
783 -> 784 ;
785 [label="TechSupport <= 0.5\ngini = 0.269\nsamples = 187\nvalue = [30, 157]\nclass = Yes"] ;
784 -> 785 ;
786 [label="TotalCharges <= 69.875\ngini = 0.239\nsamples = 180\nvalue = [25, 155]\nclass = Yes"] ;
785 -> 786 ;
787 [label="gini = 0.0\nsamples = 23\nvalue = [0, 23]\nclass = Yes"] ;
786 -> 787 ;
788 [label="TotalCharges <= 90.325\ngini = 0.268\nsamples = 157\nvalue = [25, 132]\nclass = Yes"] ;
786 -> 788 ;
789 [label="MonthlyCharges <= 89.325\ngini = 0.3\nsamples = 136\nvalue = [25, 111]\nclass = Yes"] ;
788 -> 789 ;
790 [label="PaymentMethod_Credit card (automatic) <= 0.5\ngini = 0.284\nsamples = 134\nvalue = [23, 111]\nclass = Yes"] ;
789 -> 790 ;
791 [label="TotalCharges <= 74.375\ngini = 0.264\nsamples = 128\nvalue = [20, 108]\nclass = Yes"] ;
790 -> 791 ;
792 [label="MonthlyCharges <= 74.275\ngini = 0.36\nsamples = 51\nvalue = [12, 39]\nclass = Yes"] ;
791 -> 792 ;
793 [label="MonthlyCharges <= 72.8\ngini = 0.33\nsamples = 48\nvalue = [10, 38]\nclass = Yes"] ;
792 -> 793 ;
794 [label="TotalCharges <= 71.875\ngini = 0.357\nsamples = 43\nvalue = [10, 33]\nclass = Yes"] ;
793 -> 794 ;
795 [label="TotalCharges <= 71.3\ngini = 0.337\nsamples = 42\nvalue = [9, 33]\nclass = Yes"] ;
794 -> 795 ;
796 [label="TotalCharges <= 71.05\ngini = 0.361\nsamples = 38\nvalue = [9, 29]\nclass = Yes"] ;
795 -> 796 ;
797 [label="MonthlyCharges <= 70.675\ngini = 0.32\nsamples = 35\nvalue = [7, 28]\nclass = Yes"] ;
796 -> 797 ;
798 [label="TotalCharges <= 70.55\ngini = 0.366\nsamples = 29\nvalue = [7, 22]\nclass = Yes"] ;
797 -> 798 ;
799 [label="TotalCharges <= 70.275\ngini = 0.32\nsamples = 25\nvalue = [5, 20]\nclass = Yes"] ;
798 -> 799 ;
800 [label="MonthlyCharges <= 70.175\ngini = 0.375\nsamples = 20\nvalue = [5, 15]\nclass = Yes"] ;
799 -> 800 ;
801 [label="PaymentMethod_Mailed check <= 0.5\ngini = 0.291\nsamples = 17\nvalue = [3, 14]\nclass = Yes"] ;
800 -> 801 ;
802 [label="TotalCharges <= 70.025\ngini = 0.355\nsamples = 13\nvalue = [3, 10]\nclass = Yes"] ;
801 -> 802 ;
803 [label="MonthlyCharges <= 69.925\ngini = 0.245\nsamples = 7\nvalue = [1, 6]\nclass = Yes"] ;
802 -> 803 ;
804 [label="gini = 0.444\nsamples = 3\nvalue = [1, 2]\nclass = Yes"] ;
803 -> 804 ;
805 [label="gini = 0.0\nsamples = 4\nvalue = [0, 4]\nclass = Yes"] ;
803 -> 805 ;
806 [label="PaperlessBilling <= 0.5\ngini = 0.444\nsamples = 6\nvalue = [2, 4]\nclass = Yes"] ;
802 -> 806 ;
807 [label="gini = 0.0\nsamples = 1\nvalue = [1, 0]\nclass = No"] ;
806 -> 807 ;
808 [label="TotalCharges <= 70.075\ngini = 0.32\nsamples = 5\nvalue = [1, 4]\nclass = Yes"] ;
806 -> 808 ;
809 [label="gini = 0.5\nsamples = 2\nvalue = [1, 1]\nclass = No"] ;
808 -> 809 ;
810 [label="gini = 0.0\nsamples = 3\nvalue = [0, 3]\nclass = Yes"] ;
808 -> 810 ;
811 [label="gini = 0.0\nsamples = 4\nvalue = [0, 4]\nclass = Yes"] ;
801 -> 811 ;
812 [label="TotalCharges <= 70.225\ngini = 0.444\nsamples = 3\nvalue = [2, 1]\nclass = No"] ;
800 -> 812 ;
813 [label="gini = 0.0\nsamples = 1\nvalue = [1, 0]\nclass = No"] ;
812 -> 813 ;
814 [label="gini = 0.5\nsamples = 2\nvalue = [1, 1]\nclass = No"] ;
812 -> 814 ;
815 [label="gini = 0.0\nsamples = 5\nvalue = [0, 5]\nclass = Yes"] ;
799 -> 815 ;
816 [label="PaymentMethod_Electronic check <= 0.5\ngini = 0.5\nsamples = 4\nvalue = [2, 2]\nclass = No"] ;
798 -> 816 ;
817 [label="PaperlessBilling <= 0.5\ngini = 0.444\nsamples = 3\nvalue = [2, 1]\nclass = No"] ;
816 -> 817 ;
818 [label="gini = 0.0\nsamples = 1\nvalue = [0, 1]\nclass = Yes"] ;
817 -> 818 ;
819 [label="gini = 0.0\nsamples = 2\nvalue = [2, 0]\nclass = No"] ;
817 -> 819 ;
820 [label="gini = 0.0\nsamples = 1\nvalue = [0, 1]\nclass = Yes"] ;
816 -> 820 ;
821 [label="gini = 0.0\nsamples = 6\nvalue = [0, 6]\nclass = Yes"] ;
797 -> 821 ;
822 [label="MonthlyCharges <= 71.175\ngini = 0.444\nsamples = 3\nvalue = [2, 1]\nclass = No"] ;
796 -> 822 ;
823 [label="gini = 0.5\nsamples = 2\nvalue = [1, 1]\nclass = No"] ;
822 -> 823 ;
824 [label="gini = 0.0\nsamples = 1\nvalue = [1, 0]\nclass = No"] ;
822 -> 824 ;
825 [label="gini = 0.0\nsamples = 4\nvalue = [0, 4]\nclass = Yes"] ;
795 -> 825 ;
826 [label="gini = 0.0\nsamples = 1\nvalue = [1, 0]\nclass = No"] ;
794 -> 826 ;
827 [label="gini = 0.0\nsamples = 5\nvalue = [0, 5]\nclass = Yes"] ;
793 -> 827 ;
828 [label="PaperlessBilling <= 0.5\ngini = 0.444\nsamples = 3\nvalue = [2, 1]\nclass = No"] ;
792 -> 828 ;
829 [label="gini = 0.0\nsamples = 2\nvalue = [2, 0]\nclass = No"] ;
828 -> 829 ;
830 [label="gini = 0.0\nsamples = 1\nvalue = [0, 1]\nclass = Yes"] ;
828 -> 830 ;
831 [label="MonthlyCharges <= 89.2\ngini = 0.186\nsamples = 77\nvalue = [8, 69]\nclass = Yes"] ;
791 -> 831 ;
832 [label="TotalCharges <= 80.525\ngini = 0.169\nsamples = 75\nvalue = [7, 68]\nclass = Yes"] ;
831 -> 832 ;
833 [label="MonthlyCharges <= 75.075\ngini = 0.115\nsamples = 49\nvalue = [3, 46]\nclass = Yes"] ;
832 -> 833 ;
834 [label="gini = 0.0\nsamples = 12\nvalue = [0, 12]\nclass = Yes"] ;
833 -> 834 ;
835 [label="MonthlyCharges <= 75.2\ngini = 0.149\nsamples = 37\nvalue = [3, 34]\nclass = Yes"] ;
833 -> 835 ;
836 [label="gini = 0.5\nsamples = 2\nvalue = [1, 1]\nclass = No"] ;
835 -> 836 ;
837 [label="DeviceProtection <= 0.5\ngini = 0.108\nsamples = 35\nvalue = [2, 33]\nclass = Yes"] ;
835 -> 837 ;
838 [label="PaymentMethod_Mailed check <= 0.5\ngini = 0.064\nsamples = 30\nvalue = [1, 29]\nclass = Yes"] ;
837 -> 838 ;
839 [label="gini = 0.0\nsamples = 25\nvalue = [0, 25]\nclass = Yes"] ;
838 -> 839 ;
840 [label="TotalCharges <= 77.775\ngini = 0.32\nsamples = 5\nvalue = [1, 4]\nclass = Yes"] ;
838 -> 840 ;
841 [label="gini = 0.0\nsamples = 2\nvalue = [0, 2]\nclass = Yes"] ;
840 -> 841 ;
842 [label="MonthlyCharges <= 79.6\ngini = 0.444\nsamples = 3\nvalue = [1, 2]\nclass = Yes"] ;
840 -> 842 ;
843 [label="gini = 0.0\nsamples = 1\nvalue = [1, 0]\nclass = No"] ;
842 -> 843 ;
844 [label="gini = 0.0\nsamples = 2\nvalue = [0, 2]\nclass = Yes"] ;
842 -> 844 ;
845 [label="PaperlessBilling <= 0.5\ngini = 0.32\nsamples = 5\nvalue = [1, 4]\nclass = Yes"] ;
837 -> 845 ;
846 [label="MonthlyCharges <= 75.425\ngini = 0.444\nsamples = 3\nvalue = [1, 2]\nclass = Yes"] ;
845 -> 846 ;
847 [label="gini = 0.0\nsamples = 1\nvalue = [0, 1]\nclass = Yes"] ;
846 -> 847 ;
848 [label="TotalCharges <= 75.875\ngini = 0.5\nsamples = 2\nvalue = [1, 1]\nclass = No"] ;
846 -> 848 ;
849 [label="gini = 0.0\nsamples = 1\nvalue = [1, 0]\nclass = No"] ;
848 -> 849 ;
850 [label="gini = 0.0\nsamples = 1\nvalue = [0, 1]\nclass = Yes"] ;
848 -> 850 ;
851 [label="gini = 0.0\nsamples = 2\nvalue = [0, 2]\nclass = Yes"] ;
845 -> 851 ;
852 [label="TotalCharges <= 81.075\ngini = 0.26\nsamples = 26\nvalue = [4, 22]\nclass = Yes"] ;
832 -> 852 ;
853 [label="TotalCharges <= 80.95\ngini = 0.48\nsamples = 5\nvalue = [2, 3]\nclass = Yes"] ;
852 -> 853 ;
854 [label="TotalCharges <= 80.675\ngini = 0.375\nsamples = 4\nvalue = [1, 3]\nclass = Yes"] ;
853 -> 854 ;
855 [label="gini = 0.5\nsamples = 2\nvalue = [1, 1]\nclass = No"] ;
854 -> 855 ;
856 [label="gini = 0.0\nsamples = 2\nvalue = [0, 2]\nclass = Yes"] ;
854 -> 856 ;
857 [label="gini = 0.0\nsamples = 1\nvalue = [1, 0]\nclass = No"] ;
853 -> 857 ;
858 [label="TotalCharges <= 85.025\ngini = 0.172\nsamples = 21\nvalue = [2, 19]\nclass = Yes"] ;
852 -> 858 ;
859 [label="MonthlyCharges <= 84.55\ngini = 0.278\nsamples = 12\nvalue = [2, 10]\nclass = Yes"] ;
858 -> 859 ;
860 [label="gini = 0.0\nsamples = 6\nvalue = [0, 6]\nclass = Yes"] ;
859 -> 860 ;
861 [label="OnlineBackup <= 0.5\ngini = 0.444\nsamples = 6\nvalue = [2, 4]\nclass = Yes"] ;
859 -> 861 ;
862 [label="TotalCharges <= 84.725\ngini = 0.32\nsamples = 5\nvalue = [1, 4]\nclass = Yes"] ;
861 -> 862 ;
863 [label="PaymentMethod_Mailed check <= 0.5\ngini = 0.5\nsamples = 2\nvalue = [1, 1]\nclass = No"] ;
862 -> 863 ;
864 [label="gini = 0.0\nsamples = 1\nvalue = [1, 0]\nclass = No"] ;
863 -> 864 ;
865 [label="gini = 0.0\nsamples = 1\nvalue = [0, 1]\nclass = Yes"] ;
863 -> 865 ;
866 [label="gini = 0.0\nsamples = 3\nvalue = [0, 3]\nclass = Yes"] ;
862 -> 866 ;
867 [label="gini = 0.0\nsamples = 1\nvalue = [1, 0]\nclass = No"] ;
861 -> 867 ;
868 [label="gini = 0.0\nsamples = 9\nvalue = [0, 9]\nclass = Yes"] ;
858 -> 868 ;
869 [label="MonthlyCharges <= 89.275\ngini = 0.5\nsamples = 2\nvalue = [1, 1]\nclass = No"] ;
831 -> 869 ;
870 [label="gini = 0.0\nsamples = 1\nvalue = [1, 0]\nclass = No"] ;
869 -> 870 ;
871 [label="gini = 0.0\nsamples = 1\nvalue = [0, 1]\nclass = Yes"] ;
869 -> 871 ;
872 [label="TotalCharges <= 77.75\ngini = 0.5\nsamples = 6\nvalue = [3, 3]\nclass = No"] ;
790 -> 872 ;
873 [label="TotalCharges <= 74.45\ngini = 0.375\nsamples = 4\nvalue = [3, 1]\nclass = No"] ;
872 -> 873 ;
874 [label="TotalCharges <= 72.125\ngini = 0.5\nsamples = 2\nvalue = [1, 1]\nclass = No"] ;
873 -> 874 ;
875 [label="gini = 0.0\nsamples = 1\nvalue = [1, 0]\nclass = No"] ;
874 -> 875 ;
876 [label="gini = 0.0\nsamples = 1\nvalue = [0, 1]\nclass = Yes"] ;
874 -> 876 ;
877 [label="gini = 0.0\nsamples = 2\nvalue = [2, 0]\nclass = No"] ;
873 -> 877 ;
878 [label="gini = 0.0\nsamples = 2\nvalue = [0, 2]\nclass = Yes"] ;
872 -> 878 ;
879 [label="gini = 0.0\nsamples = 2\nvalue = [2, 0]\nclass = No"] ;
789 -> 879 ;
880 [label="gini = 0.0\nsamples = 21\nvalue = [0, 21]\nclass = Yes"] ;
788 -> 880 ;
881 [label="TotalCharges <= 75.7\ngini = 0.408\nsamples = 7\nvalue = [5, 2]\nclass = No"] ;
785 -> 881 ;
882 [label="gini = 0.0\nsamples = 5\nvalue = [5, 0]\nclass = No"] ;
881 -> 882 ;
883 [label="gini = 0.0\nsamples = 2\nvalue = [0, 2]\nclass = Yes"] ;
881 -> 883 ;
884 [label="MonthlyCharges <= 80.575\ngini = 0.46\nsamples = 619\nvalue = [222, 397]\nclass = Yes"] ;
784 -> 884 ;
885 [label="TotalCharges <= 364.675\ngini = 0.497\nsamples = 325\nvalue = [149, 176]\nclass = Yes"] ;
884 -> 885 ;
886 [label="TotalCharges <= 137.525\ngini = 0.46\nsamples = 148\nvalue = [53, 95]\nclass = Yes"] ;
885 -> 886 ;
887 [label="PaymentMethod_Credit card (automatic) <= 0.5\ngini = 0.32\nsamples = 10\nvalue = [8, 2]\nclass = No"] ;
886 -> 887 ;
888 [label="MonthlyCharges <= 69.65\ngini = 0.198\nsamples = 9\nvalue = [8, 1]\nclass = No"] ;
887 -> 888 ;
889 [label="gini = 0.0\nsamples = 1\nvalue = [0, 1]\nclass = Yes"] ;
888 -> 889 ;
890 [label="gini = 0.0\nsamples = 8\nvalue = [8, 0]\nclass = No"] ;
888 -> 890 ;
891 [label="gini = 0.0\nsamples = 1\nvalue = [0, 1]\nclass = Yes"] ;
887 -> 891 ;
892 [label="PaymentMethod_Bank transfer (automatic) <= 0.5\ngini = 0.44\nsamples = 138\nvalue = [45, 93]\nclass = Yes"] ;
886 -> 892 ;
893 [label="MonthlyCharges <= 69.625\ngini = 0.46\nsamples = 123\nvalue = [44, 79]\nclass = Yes"] ;
892 -> 893 ;
894 [label="StreamingTV <= 0.5\ngini = 0.278\nsamples = 6\nvalue = [5, 1]\nclass = No"] ;
893 -> 894 ;
895 [label="gini = 0.0\nsamples = 5\nvalue = [5, 0]\nclass = No"] ;
894 -> 895 ;
896 [label="gini = 0.0\nsamples = 1\nvalue = [0, 1]\nclass = Yes"] ;
894 -> 896 ;
897 [label="OnlineBackup <= 0.5\ngini = 0.444\nsamples = 117\nvalue = [39, 78]\nclass = Yes"] ;
893 -> 897 ;
898 [label="TotalCharges <= 321.075\ngini = 0.416\nsamples = 105\nvalue = [31, 74]\nclass = Yes"] ;
897 -> 898 ;
899 [label="MonthlyCharges <= 74.225\ngini = 0.437\nsamples = 96\nvalue = [31, 65]\nclass = Yes"] ;
898 -> 899 ;
900 [label="DeviceProtection <= 0.5\ngini = 0.498\nsamples = 32\nvalue = [15, 17]\nclass = Yes"] ;
899 -> 900 ;
901 [label="TotalCharges <= 287.425\ngini = 0.485\nsamples = 29\nvalue = [12, 17]\nclass = Yes"] ;
900 -> 901 ;
902 [label="PaymentMethod_Mailed check <= 0.5\ngini = 0.444\nsamples = 24\nvalue = [8, 16]\nclass = Yes"] ;
901 -> 902 ;
903 [label="MonthlyCharges <= 70.325\ngini = 0.397\nsamples = 22\nvalue = [6, 16]\nclass = Yes"] ;
902 -> 903 ;
904 [label="TotalCharges <= 204.35\ngini = 0.497\nsamples = 13\nvalue = [6, 7]\nclass = Yes"] ;
903 -> 904 ;
905 [label="MonthlyCharges <= 69.725\ngini = 0.32\nsamples = 5\nvalue = [4, 1]\nclass = No"] ;
904 -> 905 ;
906 [label="gini = 0.0\nsamples = 1\nvalue = [0, 1]\nclass = Yes"] ;
905 -> 906 ;
907 [label="gini = 0.0\nsamples = 4\nvalue = [4, 0]\nclass = No"] ;
905 -> 907 ;
908 [label="TotalCharges <= 274.35\ngini = 0.375\nsamples = 8\nvalue = [2, 6]\nclass = Yes"] ;
904 -> 908 ;
909 [label="TotalCharges <= 232.6\ngini = 0.245\nsamples = 7\nvalue = [1, 6]\nclass = Yes"] ;
908 -> 909 ;
910 [label="TotalCharges <= 224.9\ngini = 0.444\nsamples = 3\nvalue = [1, 2]\nclass = Yes"] ;
909 -> 910 ;
911 [label="gini = 0.0\nsamples = 2\nvalue = [0, 2]\nclass = Yes"] ;
910 -> 911 ;
912 [label="gini = 0.0\nsamples = 1\nvalue = [1, 0]\nclass = No"] ;
910 -> 912 ;
913 [label="gini = 0.0\nsamples = 4\nvalue = [0, 4]\nclass = Yes"] ;
909 -> 913 ;
914 [label="gini = 0.0\nsamples = 1\nvalue = [1, 0]\nclass = No"] ;
908 -> 914 ;
915 [label="gini = 0.0\nsamples = 9\nvalue = [0, 9]\nclass = Yes"] ;
903 -> 915 ;
916 [label="gini = 0.0\nsamples = 2\nvalue = [2, 0]\nclass = No"] ;
902 -> 916 ;
917 [label="MonthlyCharges <= 69.825\ngini = 0.32\nsamples = 5\nvalue = [4, 1]\nclass = No"] ;
901 -> 917 ;
918 [label="gini = 0.0\nsamples = 1\nvalue = [0, 1]\nclass = Yes"] ;
917 -> 918 ;
919 [label="gini = 0.0\nsamples = 4\nvalue = [4, 0]\nclass = No"] ;
917 -> 919 ;
920 [label="gini = 0.0\nsamples = 3\nvalue = [3, 0]\nclass = No"] ;
900 -> 920 ;
921 [label="TotalCharges <= 173.65\ngini = 0.375\nsamples = 64\nvalue = [16, 48]\nclass = Yes"] ;
899 -> 921 ;
922 [label="gini = 0.0\nsamples = 15\nvalue = [0, 15]\nclass = Yes"] ;
921 -> 922 ;
923 [label="MonthlyCharges <= 74.425\ngini = 0.44\nsamples = 49\nvalue = [16, 33]\nclass = Yes"] ;
921 -> 923 ;
924 [label="gini = 0.0\nsamples = 5\nvalue = [0, 5]\nclass = Yes"] ;
923 -> 924 ;
925 [label="MonthlyCharges <= 74.6\ngini = 0.463\nsamples = 44\nvalue = [16, 28]\nclass = Yes"] ;
923 -> 925 ;
926 [label="gini = 0.0\nsamples = 3\nvalue = [3, 0]\nclass = No"] ;
925 -> 926 ;
927 [label="PaymentMethod_Mailed check <= 0.5\ngini = 0.433\nsamples = 41\nvalue = [13, 28]\nclass = Yes"] ;
925 -> 927 ;
928 [label="TotalCharges <= 214.575\ngini = 0.394\nsamples = 37\nvalue = [10, 27]\nclass = Yes"] ;
927 -> 928 ;
929 [label="StreamingMovies <= 0.5\ngini = 0.494\nsamples = 9\nvalue = [5, 4]\nclass = No"] ;
928 -> 929 ;
930 [label="MonthlyCharges <= 77.825\ngini = 0.32\nsamples = 5\nvalue = [4, 1]\nclass = No"] ;
929 -> 930 ;
931 [label="MonthlyCharges <= 75.325\ngini = 0.5\nsamples = 2\nvalue = [1, 1]\nclass = No"] ;
930 -> 931 ;
932 [label="gini = 0.0\nsamples = 1\nvalue = [1, 0]\nclass = No"] ;
931 -> 932 ;
933 [label="gini = 0.0\nsamples = 1\nvalue = [0, 1]\nclass = Yes"] ;
931 -> 933 ;
934 [label="gini = 0.0\nsamples = 3\nvalue = [3, 0]\nclass = No"] ;
930 -> 934 ;
935 [label="DeviceProtection <= 0.5\ngini = 0.375\nsamples = 4\nvalue = [1, 3]\nclass = Yes"] ;
929 -> 935 ;
936 [label="gini = 0.0\nsamples = 3\nvalue = [0, 3]\nclass = Yes"] ;
935 -> 936 ;
937 [label="gini = 0.0\nsamples = 1\nvalue = [1, 0]\nclass = No"] ;
935 -> 937 ;
938 [label="MonthlyCharges <= 80.125\ngini = 0.293\nsamples = 28\nvalue = [5, 23]\nclass = Yes"] ;
928 -> 938 ;
939 [label="PaperlessBilling <= 0.5\ngini = 0.165\nsamples = 22\nvalue = [2, 20]\nclass = Yes"] ;
938 -> 939 ;
940 [label="MonthlyCharges <= 75.3\ngini = 0.444\nsamples = 6\nvalue = [2, 4]\nclass = Yes"] ;
939 -> 940 ;
941 [label="gini = 0.0\nsamples = 2\nvalue = [0, 2]\nclass = Yes"] ;
940 -> 941 ;
942 [label="MonthlyCharges <= 77.675\ngini = 0.5\nsamples = 4\nvalue = [2, 2]\nclass = No"] ;
940 -> 942 ;
943 [label="gini = 0.0\nsamples = 2\nvalue = [2, 0]\nclass = No"] ;
942 -> 943 ;
944 [label="gini = 0.0\nsamples = 2\nvalue = [0, 2]\nclass = Yes"] ;
942 -> 944 ;
945 [label="gini = 0.0\nsamples = 16\nvalue = [0, 16]\nclass = Yes"] ;
939 -> 945 ;
946 [label="MonthlyCharges <= 80.275\ngini = 0.5\nsamples = 6\nvalue = [3, 3]\nclass = No"] ;
938 -> 946 ;
947 [label="gini = 0.0\nsamples = 2\nvalue = [2, 0]\nclass = No"] ;
946 -> 947 ;
948 [label="MonthlyCharges <= 80.45\ngini = 0.375\nsamples = 4\nvalue = [1, 3]\nclass = Yes"] ;
946 -> 948 ;
949 [label="gini = 0.0\nsamples = 3\nvalue = [0, 3]\nclass = Yes"] ;
948 -> 949 ;
950 [label="gini = 0.0\nsamples = 1\nvalue = [1, 0]\nclass = No"] ;
948 -> 950 ;
951 [label="MonthlyCharges <= 75.025\ngini = 0.375\nsamples = 4\nvalue = [3, 1]\nclass = No"] ;
927 -> 951 ;
952 [label="PaperlessBilling <= 0.5\ngini = 0.5\nsamples = 2\nvalue = [1, 1]\nclass = No"] ;
951 -> 952 ;
953 [label="gini = 0.0\nsamples = 1\nvalue = [0, 1]\nclass = Yes"] ;
952 -> 953 ;
954 [label="gini = 0.0\nsamples = 1\nvalue = [1, 0]\nclass = No"] ;
952 -> 954 ;
955 [label="gini = 0.0\nsamples = 2\nvalue = [2, 0]\nclass = No"] ;
951 -> 955 ;
956 [label="gini = 0.0\nsamples = 9\nvalue = [0, 9]\nclass = Yes"] ;
898 -> 956 ;
957 [label="MonthlyCharges <= 79.425\ngini = 0.444\nsamples = 12\nvalue = [8, 4]\nclass = No"] ;
897 -> 957 ;
958 [label="MonthlyCharges <= 76.875\ngini = 0.5\nsamples = 8\nvalue = [4, 4]\nclass = No"] ;
957 -> 958 ;
959 [label="TotalCharges <= 193.25\ngini = 0.32\nsamples = 5\nvalue = [4, 1]\nclass = No"] ;
958 -> 959 ;
960 [label="PaperlessBilling <= 0.5\ngini = 0.5\nsamples = 2\nvalue = [1, 1]\nclass = No"] ;
959 -> 960 ;
961 [label="gini = 0.0\nsamples = 1\nvalue = [1, 0]\nclass = No"] ;
960 -> 961 ;
962 [label="gini = 0.0\nsamples = 1\nvalue = [0, 1]\nclass = Yes"] ;
960 -> 962 ;
963 [label="gini = 0.0\nsamples = 3\nvalue = [3, 0]\nclass = No"] ;
959 -> 963 ;
964 [label="gini = 0.0\nsamples = 3\nvalue = [0, 3]\nclass = Yes"] ;
958 -> 964 ;
965 [label="gini = 0.0\nsamples = 4\nvalue = [4, 0]\nclass = No"] ;
957 -> 965 ;
966 [label="OnlineBackup <= 0.5\ngini = 0.124\nsamples = 15\nvalue = [1, 14]\nclass = Yes"] ;
892 -> 966 ;
967 [label="gini = 0.0\nsamples = 10\nvalue = [0, 10]\nclass = Yes"] ;
966 -> 967 ;
968 [label="MonthlyCharges <= 75.625\ngini = 0.32\nsamples = 5\nvalue = [1, 4]\nclass = Yes"] ;
966 -> 968 ;
969 [label="MonthlyCharges <= 74.075\ngini = 0.5\nsamples = 2\nvalue = [1, 1]\nclass = No"] ;
968 -> 969 ;
970 [label="gini = 0.0\nsamples = 1\nvalue = [0, 1]\nclass = Yes"] ;
969 -> 970 ;
971 [label="gini = 0.0\nsamples = 1\nvalue = [1, 0]\nclass = No"] ;
969 -> 971 ;
972 [label="gini = 0.0\nsamples = 3\nvalue = [0, 3]\nclass = Yes"] ;
968 -> 972 ;
973 [label="TotalCharges <= 1071.7\ngini = 0.496\nsamples = 177\nvalue = [96, 81]\nclass = No"] ;
885 -> 973 ;
974 [label="MonthlyCharges <= 69.9\ngini = 0.489\nsamples = 162\nvalue = [93, 69]\nclass = No"] ;
973 -> 974 ;
975 [label="TotalCharges <= 566.15\ngini = 0.245\nsamples = 14\nvalue = [12, 2]\nclass = No"] ;
974 -> 975 ;
976 [label="TotalCharges <= 541.1\ngini = 0.444\nsamples = 6\nvalue = [4, 2]\nclass = No"] ;
975 -> 976 ;
977 [label="TotalCharges <= 464.325\ngini = 0.32\nsamples = 5\nvalue = [4, 1]\nclass = No"] ;
976 -> 977 ;
978 [label="MonthlyCharges <= 69.575\ngini = 0.5\nsamples = 2\nvalue = [1, 1]\nclass = No"] ;
977 -> 978 ;
979 [label="gini = 0.0\nsamples = 1\nvalue = [0, 1]\nclass = Yes"] ;
978 -> 979 ;
980 [label="gini = 0.0\nsamples = 1\nvalue = [1, 0]\nclass = No"] ;
978 -> 980 ;
981 [label="gini = 0.0\nsamples = 3\nvalue = [3, 0]\nclass = No"] ;
977 -> 981 ;
982 [label="gini = 0.0\nsamples = 1\nvalue = [0, 1]\nclass = Yes"] ;
976 -> 982 ;
983 [label="gini = 0.0\nsamples = 8\nvalue = [8, 0]\nclass = No"] ;
975 -> 983 ;
984 [label="TotalCharges <= 407.5\ngini = 0.496\nsamples = 148\nvalue = [81, 67]\nclass = No"] ;
974 -> 984 ;
985 [label="StreamingMovies <= 0.5\ngini = 0.219\nsamples = 8\nvalue = [7, 1]\nclass = No"] ;
984 -> 985 ;
986 [label="gini = 0.0\nsamples = 7\nvalue = [7, 0]\nclass = No"] ;
985 -> 986 ;
987 [label="gini = 0.0\nsamples = 1\nvalue = [0, 1]\nclass = Yes"] ;
985 -> 987 ;
988 [label="TotalCharges <= 450.85\ngini = 0.498\nsamples = 140\nvalue = [74, 66]\nclass = No"] ;
984 -> 988 ;
989 [label="gini = 0.0\nsamples = 5\nvalue = [0, 5]\nclass = Yes"] ;
988 -> 989 ;
990 [label="MonthlyCharges <= 80.025\ngini = 0.495\nsamples = 135\nvalue = [74, 61]\nclass = No"] ;
988 -> 990 ;
991 [label="MonthlyCharges <= 74.8\ngini = 0.488\nsamples = 123\nvalue = [71, 52]\nclass = No"] ;
990 -> 991 ;
992 [label="MonthlyCharges <= 74.2\ngini = 0.49\nsamples = 49\nvalue = [21, 28]\nclass = Yes"] ;
991 -> 992 ;
993 [label="TotalCharges <= 928.15\ngini = 0.494\nsamples = 36\nvalue = [20, 16]\nclass = No"] ;
992 -> 993 ;
994 [label="DeviceProtection <= 0.5\ngini = 0.499\nsamples = 31\nvalue = [15, 16]\nclass = Yes"] ;
993 -> 994 ;
995 [label="MonthlyCharges <= 70.025\ngini = 0.488\nsamples = 26\nvalue = [11, 15]\nclass = Yes"] ;
994 -> 995 ;
996 [label="gini = 0.0\nsamples = 2\nvalue = [0, 2]\nclass = Yes"] ;
995 -> 996 ;
997 [label="MonthlyCharges <= 72.05\ngini = 0.497\nsamples = 24\nvalue = [11, 13]\nclass = Yes"] ;
995 -> 997 ;
998 [label="MonthlyCharges <= 70.175\ngini = 0.463\nsamples = 11\nvalue = [7, 4]\nclass = No"] ;
997 -> 998 ;
999 [label="PaperlessBilling <= 0.5\ngini = 0.48\nsamples = 5\nvalue = [2, 3]\nclass = Yes"] ;
998 -> 999 ;
1000 [label="gini = 0.0\nsamples = 2\nvalue = [2, 0]\nclass = No"] ;
999 -> 1000 ;
1001 [label="gini = 0.0\nsamples = 3\nvalue = [0, 3]\nclass = Yes"] ;
999 -> 1001 ;
1002 [label="MonthlyCharges <= 70.85\ngini = 0.278\nsamples = 6\nvalue = [5, 1]\nclass = No"] ;
998 -> 1002 ;
1003 [label="gini = 0.0\nsamples = 3\nvalue = [3, 0]\nclass = No"] ;
1002 -> 1003 ;
1004 [label="PaperlessBilling <= 0.5\ngini = 0.444\nsamples = 3\nvalue = [2, 1]\nclass = No"] ;
1002 -> 1004 ;
1005 [label="gini = 0.0\nsamples = 1\nvalue = [0, 1]\nclass = Yes"] ;
1004 -> 1005 ;
1006 [label="gini = 0.0\nsamples = 2\nvalue = [2, 0]\nclass = No"] ;
1004 -> 1006 ;
1007 [label="TotalCharges <= 481.075\ngini = 0.426\nsamples = 13\nvalue = [4, 9]\nclass = Yes"] ;
997 -> 1007 ;
1008 [label="gini = 0.0\nsamples = 1\nvalue = [1, 0]\nclass = No"] ;
1007 -> 1008 ;
1009 [label="TotalCharges <= 588.675\ngini = 0.375\nsamples = 12\nvalue = [3, 9]\nclass = Yes"] ;
1007 -> 1009 ;
1010 [label="gini = 0.0\nsamples = 3\nvalue = [0, 3]\nclass = Yes"] ;
1009 -> 1010 ;
1011 [label="TotalCharges <= 683.55\ngini = 0.444\nsamples = 9\nvalue = [3, 6]\nclass = Yes"] ;
1009 -> 1011 ;
1012 [label="gini = 0.0\nsamples = 2\nvalue = [2, 0]\nclass = No"] ;
1011 -> 1012 ;
1013 [label="TotalCharges <= 819.925\ngini = 0.245\nsamples = 7\nvalue = [1, 6]\nclass = Yes"] ;
1011 -> 1013 ;
1014 [label="gini = 0.0\nsamples = 4\nvalue = [0, 4]\nclass = Yes"] ;
1013 -> 1014 ;
1015 [label="MonthlyCharges <= 73.525\ngini = 0.444\nsamples = 3\nvalue = [1, 2]\nclass = Yes"] ;
1013 -> 1015 ;
1016 [label="gini = 0.0\nsamples = 1\nvalue = [1, 0]\nclass = No"] ;
1015 -> 1016 ;
1017 [label="gini = 0.0\nsamples = 2\nvalue = [0, 2]\nclass = Yes"] ;
1015 -> 1017 ;
1018 [label="PaymentMethod_Mailed check <= 0.5\ngini = 0.32\nsamples = 5\nvalue = [4, 1]\nclass = No"] ;
994 -> 1018 ;
1019 [label="gini = 0.0\nsamples = 4\nvalue = [4, 0]\nclass = No"] ;
1018 -> 1019 ;
